#ifndef FANN_FANN_NET_H_
#define FANN_FANN_NET_H_

#include "rt/rt_api.h"
#include "fann.h" 
#include "fann_structs.h" 

RT_L2_DATA enum fann_nettype_enum network_type = 0;

RT_L2_DATA fann_neuron fann_neurons[418] = {{0, 0, 0, 0}, {0, 0, 0, 0}, {0, 0, 0, 0}, {0, 0, 0, 0}, {0, 0, 0, 0}, {0, 0, 0, 0}, {0, 0, 0, 0}, {0, 7, 512, 5}, {7, 14, 512, 5}, {14, 21, 512, 5}, {21, 28, 512, 5}, {28, 35, 512, 5}, {35, 42, 512, 5}, {42, 49, 512, 5}, {49, 56, 512, 5}, {56, 63, 512, 5}, {63, 70, 512, 5}, {70, 77, 512, 5}, {77, 84, 512, 5}, {84, 91, 512, 5}, {91, 98, 512, 5}, {98, 105, 512, 5}, {105, 112, 512, 5}, {112, 119, 512, 5}, {119, 126, 512, 5}, {126, 133, 512, 5}, {133, 140, 512, 5}, {140, 147, 512, 5}, {147, 154, 512, 5}, {154, 161, 512, 5}, {161, 168, 512, 5}, {168, 168, 512, 5}, {168, 193, 512, 5}, {193, 218, 512, 5}, {218, 243, 512, 5}, {243, 268, 512, 5}, {268, 293, 512, 5}, {293, 318, 512, 5}, {318, 343, 512, 5}, {343, 368, 512, 5}, {368, 393, 512, 5}, {393, 418, 512, 5}, {418, 443, 512, 5}, {443, 468, 512, 5}, {468, 493, 512, 5}, {493, 518, 512, 5}, {518, 543, 512, 5}, {543, 568, 512, 5}, {568, 593, 512, 5}, {593, 618, 512, 5}, {618, 643, 512, 5}, {643, 668, 512, 5}, {668, 693, 512, 5}, {693, 718, 512, 5}, {718, 743, 512, 5}, {743, 768, 512, 5}, {768, 793, 512, 5}, {793, 818, 512, 5}, {818, 843, 512, 5}, {843, 868, 512, 5}, {868, 893, 512, 5}, {893, 918, 512, 5}, {918, 943, 512, 5}, {943, 968, 512, 5}, {968, 993, 512, 5}, {993, 1018, 512, 5}, {1018, 1043, 512, 5}, {1043, 1068, 512, 5}, {1068, 1093, 512, 5}, {1093, 1118, 512, 5}, {1118, 1143, 512, 5}, {1143, 1168, 512, 5}, {1168, 1193, 512, 5}, {1193, 1218, 512, 5}, {1218, 1243, 512, 5}, {1243, 1268, 512, 5}, {1268, 1293, 512, 5}, {1293, 1318, 512, 5}, {1318, 1343, 512, 5}, {1343, 1368, 512, 5}, {1368, 1393, 512, 5}, {1393, 1418, 512, 5}, {1418, 1443, 512, 5}, {1443, 1468, 512, 5}, {1468, 1493, 512, 5}, {1493, 1518, 512, 5}, {1518, 1543, 512, 5}, {1543, 1568, 512, 5}, {1568, 1593, 512, 5}, {1593, 1618, 512, 5}, {1618, 1643, 512, 5}, {1643, 1668, 512, 5}, {1668, 1693, 512, 5}, {1693, 1718, 512, 5}, {1718, 1743, 512, 5}, {1743, 1768, 512, 5}, {1768, 1793, 512, 5}, {1793, 1818, 512, 5}, {1818, 1843, 512, 5}, {1843, 1868, 512, 5}, {1868, 1893, 512, 5}, {1893, 1918, 512, 5}, {1918, 1943, 512, 5}, {1943, 1968, 512, 5}, {1968, 1993, 512, 5}, {1993, 2018, 512, 5}, {2018, 2043, 512, 5}, {2043, 2068, 512, 5}, {2068, 2093, 512, 5}, {2093, 2118, 512, 5}, {2118, 2143, 512, 5}, {2143, 2168, 512, 5}, {2168, 2193, 512, 5}, {2193, 2218, 512, 5}, {2218, 2243, 512, 5}, {2243, 2268, 512, 5}, {2268, 2293, 512, 5}, {2293, 2318, 512, 5}, {2318, 2343, 512, 5}, {2343, 2368, 512, 5}, {2368, 2393, 512, 5}, {2393, 2418, 512, 5}, {2418, 2443, 512, 5}, {2443, 2468, 512, 5}, {2468, 2493, 512, 5}, {2493, 2518, 512, 5}, {2518, 2543, 512, 5}, {2543, 2568, 512, 5}, {2568, 2593, 512, 5}, {2593, 2618, 512, 5}, {2618, 2643, 512, 5}, {2643, 2668, 512, 5}, {2668, 2668, 512, 5}, {2668, 2769, 512, 5}, {2769, 2870, 512, 5}, {2870, 2971, 512, 5}, {2971, 3072, 512, 5}, {3072, 3173, 512, 5}, {3173, 3274, 512, 5}, {3274, 3375, 512, 5}, {3375, 3476, 512, 5}, {3476, 3577, 512, 5}, {3577, 3678, 512, 5}, {3678, 3779, 512, 5}, {3779, 3880, 512, 5}, {3880, 3981, 512, 5}, {3981, 4082, 512, 5}, {4082, 4183, 512, 5}, {4183, 4284, 512, 5}, {4284, 4385, 512, 5}, {4385, 4486, 512, 5}, {4486, 4587, 512, 5}, {4587, 4688, 512, 5}, {4688, 4789, 512, 5}, {4789, 4890, 512, 5}, {4890, 4991, 512, 5}, {4991, 5092, 512, 5}, {5092, 5193, 512, 5}, {5193, 5294, 512, 5}, {5294, 5395, 512, 5}, {5395, 5496, 512, 5}, {5496, 5597, 512, 5}, {5597, 5698, 512, 5}, {5698, 5799, 512, 5}, {5799, 5900, 512, 5}, {5900, 6001, 512, 5}, {6001, 6102, 512, 5}, {6102, 6203, 512, 5}, {6203, 6304, 512, 5}, {6304, 6405, 512, 5}, {6405, 6506, 512, 5}, {6506, 6607, 512, 5}, {6607, 6708, 512, 5}, {6708, 6809, 512, 5}, {6809, 6910, 512, 5}, {6910, 7011, 512, 5}, {7011, 7112, 512, 5}, {7112, 7213, 512, 5}, {7213, 7314, 512, 5}, {7314, 7415, 512, 5}, {7415, 7516, 512, 5}, {7516, 7617, 512, 5}, {7617, 7718, 512, 5}, {7718, 7819, 512, 5}, {7819, 7920, 512, 5}, {7920, 8021, 512, 5}, {8021, 8122, 512, 5}, {8122, 8223, 512, 5}, {8223, 8324, 512, 5}, {8324, 8425, 512, 5}, {8425, 8526, 512, 5}, {8526, 8627, 512, 5}, {8627, 8728, 512, 5}, {8728, 8829, 512, 5}, {8829, 8930, 512, 5}, {8930, 9031, 512, 5}, {9031, 9132, 512, 5}, {9132, 9233, 512, 5}, {9233, 9334, 512, 5}, {9334, 9435, 512, 5}, {9435, 9536, 512, 5}, {9536, 9637, 512, 5}, {9637, 9738, 512, 5}, {9738, 9839, 512, 5}, {9839, 9940, 512, 5}, {9940, 10041, 512, 5}, {10041, 10142, 512, 5}, {10142, 10243, 512, 5}, {10243, 10344, 512, 5}, {10344, 10445, 512, 5}, {10445, 10546, 512, 5}, {10546, 10647, 512, 5}, {10647, 10748, 512, 5}, {10748, 10849, 512, 5}, {10849, 10950, 512, 5}, {10950, 11051, 512, 5}, {11051, 11152, 512, 5}, {11152, 11253, 512, 5}, {11253, 11354, 512, 5}, {11354, 11455, 512, 5}, {11455, 11556, 512, 5}, {11556, 11657, 512, 5}, {11657, 11758, 512, 5}, {11758, 11859, 512, 5}, {11859, 11960, 512, 5}, {11960, 12061, 512, 5}, {12061, 12162, 512, 5}, {12162, 12263, 512, 5}, {12263, 12364, 512, 5}, {12364, 12465, 512, 5}, {12465, 12566, 512, 5}, {12566, 12667, 512, 5}, {12667, 12768, 512, 5}, {12768, 12869, 512, 5}, {12869, 12970, 512, 5}, {12970, 13071, 512, 5}, {13071, 13172, 512, 5}, {13172, 13273, 512, 5}, {13273, 13374, 512, 5}, {13374, 13475, 512, 5}, {13475, 13576, 512, 5}, {13576, 13677, 512, 5}, {13677, 13778, 512, 5}, {13778, 13879, 512, 5}, {13879, 13980, 512, 5}, {13980, 14081, 512, 5}, {14081, 14182, 512, 5}, {14182, 14283, 512, 5}, {14283, 14384, 512, 5}, {14384, 14485, 512, 5}, {14485, 14586, 512, 5}, {14586, 14687, 512, 5}, {14687, 14788, 512, 5}, {14788, 14889, 512, 5}, {14889, 14990, 512, 5}, {14990, 15091, 512, 5}, {15091, 15192, 512, 5}, {15192, 15293, 512, 5}, {15293, 15394, 512, 5}, {15394, 15495, 512, 5}, {15495, 15596, 512, 5}, {15596, 15697, 512, 5}, {15697, 15798, 512, 5}, {15798, 15899, 512, 5}, {15899, 16000, 512, 5}, {16000, 16101, 512, 5}, {16101, 16202, 512, 5}, {16202, 16303, 512, 5}, {16303, 16404, 512, 5}, {16404, 16505, 512, 5}, {16505, 16606, 512, 5}, {16606, 16707, 512, 5}, {16707, 16808, 512, 5}, {16808, 16909, 512, 5}, {16909, 17010, 512, 5}, {17010, 17111, 512, 5}, {17111, 17212, 512, 5}, {17212, 17313, 512, 5}, {17313, 17414, 512, 5}, {17414, 17515, 512, 5}, {17515, 17616, 512, 5}, {17616, 17717, 512, 5}, {17717, 17818, 512, 5}, {17818, 17818, 512, 5}, {17818, 17969, 512, 5}, {17969, 18120, 512, 5}, {18120, 18271, 512, 5}, {18271, 18422, 512, 5}, {18422, 18573, 512, 5}, {18573, 18724, 512, 5}, {18724, 18875, 512, 5}, {18875, 19026, 512, 5}, {19026, 19177, 512, 5}, {19177, 19328, 512, 5}, {19328, 19479, 512, 5}, {19479, 19630, 512, 5}, {19630, 19781, 512, 5}, {19781, 19932, 512, 5}, {19932, 20083, 512, 5}, {20083, 20234, 512, 5}, {20234, 20385, 512, 5}, {20385, 20536, 512, 5}, {20536, 20687, 512, 5}, {20687, 20838, 512, 5}, {20838, 20989, 512, 5}, {20989, 21140, 512, 5}, {21140, 21291, 512, 5}, {21291, 21442, 512, 5}, {21442, 21593, 512, 5}, {21593, 21744, 512, 5}, {21744, 21895, 512, 5}, {21895, 22046, 512, 5}, {22046, 22197, 512, 5}, {22197, 22348, 512, 5}, {22348, 22499, 512, 5}, {22499, 22650, 512, 5}, {22650, 22801, 512, 5}, {22801, 22952, 512, 5}, {22952, 23103, 512, 5}, {23103, 23254, 512, 5}, {23254, 23405, 512, 5}, {23405, 23556, 512, 5}, {23556, 23707, 512, 5}, {23707, 23858, 512, 5}, {23858, 24009, 512, 5}, {24009, 24160, 512, 5}, {24160, 24311, 512, 5}, {24311, 24462, 512, 5}, {24462, 24613, 512, 5}, {24613, 24764, 512, 5}, {24764, 24915, 512, 5}, {24915, 25066, 512, 5}, {25066, 25217, 512, 5}, {25217, 25368, 512, 5}, {25368, 25519, 512, 5}, {25519, 25670, 512, 5}, {25670, 25821, 512, 5}, {25821, 25972, 512, 5}, {25972, 26123, 512, 5}, {26123, 26274, 512, 5}, {26274, 26425, 512, 5}, {26425, 26576, 512, 5}, {26576, 26727, 512, 5}, {26727, 26878, 512, 5}, {26878, 27029, 512, 5}, {27029, 27180, 512, 5}, {27180, 27331, 512, 5}, {27331, 27482, 512, 5}, {27482, 27633, 512, 5}, {27633, 27784, 512, 5}, {27784, 27935, 512, 5}, {27935, 28086, 512, 5}, {28086, 28237, 512, 5}, {28237, 28388, 512, 5}, {28388, 28539, 512, 5}, {28539, 28690, 512, 5}, {28690, 28841, 512, 5}, {28841, 28992, 512, 5}, {28992, 29143, 512, 5}, {29143, 29143, 512, 5}, {29143, 29219, 512, 5}, {29219, 29295, 512, 5}, {29295, 29371, 512, 5}, {29371, 29447, 512, 5}, {29447, 29523, 512, 5}, {29523, 29599, 512, 5}, {29599, 29675, 512, 5}, {29675, 29751, 512, 5}, {29751, 29827, 512, 5}, {29827, 29903, 512, 5}, {29903, 29979, 512, 5}, {29979, 30055, 512, 5}, {30055, 30131, 512, 5}, {30131, 30207, 512, 5}, {30207, 30283, 512, 5}, {30283, 30359, 512, 5}, {30359, 30435, 512, 5}, {30435, 30511, 512, 5}, {30511, 30587, 512, 5}, {30587, 30663, 512, 5}, {30663, 30739, 512, 5}, {30739, 30815, 512, 5}, {30815, 30891, 512, 5}, {30891, 30967, 512, 5}, {30967, 31043, 512, 5}, {31043, 31119, 512, 5}, {31119, 31195, 512, 5}, {31195, 31271, 512, 5}, {31271, 31347, 512, 5}, {31347, 31423, 512, 5}, {31423, 31499, 512, 5}, {31499, 31575, 512, 5}, {31575, 31651, 512, 5}, {31651, 31727, 512, 5}, {31727, 31803, 512, 5}, {31803, 31879, 512, 5}, {31879, 31955, 512, 5}, {31955, 32031, 512, 5}, {32031, 32107, 512, 5}, {32107, 32183, 512, 5}, {32183, 32183, 512, 5}, {32183, 32224, 512, 5}, {32224, 32265, 512, 5}, {32265, 32306, 512, 5}, {32306, 32347, 512, 5}, {32347, 32388, 512, 5}, {32388, 32429, 512, 5}, {32429, 32470, 512, 5}, {32470, 32511, 512, 5}, {32511, 32552, 512, 5}, {32552, 32593, 512, 5}, {32593, 32634, 512, 5}, {32634, 32675, 512, 5}, {32675, 32675, 512, 5}, {32675, 32688, 512, 0}, {32688, 32701, 512, 0}, {32701, 32714, 512, 0}, {32714, 32714, 512, 0}};

RT_L2_DATA fann_type fann_weights[32714] = {480, 76, 123, -559, 462, 185, 110, 93, -54, 257, 132, -92, -108, -230, 188, -53, -113, -11, 221, 54, 290, 45, 237, -288, 94, -97, -187, 76, -181, 373, 122, 214, 286, -58, -1, 40, 932, 198, 711, 658, 60, 188, 170, -21, 99, -194, -158, -180, -545, -10, 324, 48, 722, 294, 196, 528, 549, -168, 156, -626, 593, 467, 205, -85, 1018, -274, 354, 127, 55, 159, 245, -19, 19, 94, 2, 220, -91, 27, -136, -359, 175, -1, 280, 31, 184, -12, 91, -238, 79, -100, -161, 187, -46, 378, 59, 217, 119, 358, 278, 249, -272, -273, 129, 58, 288, 268, 24, -447, 53, 41, -229, -90, 214, 731, 308, 98, 480, -112, 1029, -24, -28, -9, 1333, 648, 230, 141, -7, 376, 423, 255, 162, -124, 790, 710, 62, -100, -834, -660, 130, -63, -6, -227, -112, 423, -314, -7, -78, -5, 38, 71, 672, -85, 82, 40, -27, 290, -144, 274, -73, 506, 188, 342, 383, 97, -171, 235, 261, -68, -425, 402, 136, -156, 257, -208, 63, 620, 31, -92, -569, 412, -80, 299, -387, -82, 318, 351, 229, -1084, 176, 134, 500, -397, 1, 855, 197, 887, -402, 61, -74, -60, 175, 1078, -90, 140, -25, 245, 649, 146, 63, 208, -46, 167, 390, 65, 93, 47, 56, 229, 226, -4, 12, -33, 43, -217, 153, 17, -46, -164, -35, -342, 125, 406, 227, -149, 327, 40, 224, 17, -290, -115, 11, 2, 282, 158, -166, 242, -98, -164, -2, 435, 86, 238, 46, 1439, 504, 36, 176, 165, 419, -14, 93, -160, 451, 392, 293, 192, 395, 12, 707, 363, 54, -248, -20, -308, 386, -198, 398, 339, -34, -511, -32, 161, 306, 216, 97, -742, 63, 336, -2185, -806, 404, 353, 107, 328, -7, 1651, -93, -289, -76, 87, 274, 283, -20, 192, -85, 26, 210, 452, 259, 420, -79, 305, 458, -255, 216, 218, -36, 127, 127, 266, 108, -205, 46, -301, 173, 139, -62, -364, 291, -142, 72, 255, -41, 45, 24, 169, 112, 13, 0, -142, 179, -64, -268, -86, 136, -124, 355, 120, 672, 107, 182, -275, 515, 308, 1286, 100, -287, 97, 68, -156, 116, 77, 214, 569, 337, 168, 111, -88, -237, -102, 360, 282, 12, 141, 33, 189, -51, 674, 169, 769, 179, 58, 78, 238, -14, 1358, 101, 58, 100, 59, 256, 132, 95, 251, -62, -47, 200, -164, 16, 904, 1992, 297, 89, 1409, 602, 367, 3, 225, 1012, -33, 68, -325, 440, 219, 74, 84, 209, 140, 192, -188, 100, 4, -291, -18, -49, 375, 220, -17, 96, -56, -1, 43, 240, -44, 853, -79, 668, 6, -62, 511, 245, -59, 825, 141, -34, 4043, 263, 299, -122, 41, 371, 2, -146, -4, 701, -34, -258, 394, 92, 717, 336, 259, 63, -228, 326, -254, 82, 193, -9, 515, 324, -24, 76, -567, 421, -513, -462, -764, -51, 118, 370, 291, -34, 53, 84, 205, 199, -128, -63, -289, -352, 29, 78, -54, 224, 400, -182, -362, -56, -234, 635, -85, -106, 363, 80, -34, 53, -264, -173, 73, 616, 316, 264, -51, 443, 448, -187, -202, -97, 451, 20, -41, 177, 164, -33, 396, -24, 27, -1524, 10, -333, 235, 26, -554, 364, -53, 777, -91, 137, 667, 371, -92, 36, -860, 160, -264, 148, 158, 179, 90, 121, -254, 129, 90, 1504, 110, -96, -163, 54, -291, 900, 20, 86, 1034, 142, 16, 63, -44, 20, 71, 76, -461, 190, -35, -154, 169, -88, 34, 24, -174, -177, 575, -67, -188, 803, 289, 345, -120, 90, 93, 93, -421, 719, 192, -397, 418, 303, -147, 20, -345, 157, 423, -71, 473, 259, 158, 207, 3054, 834, 478, 181, 141, 439, -55, -139, 512, 58, 269, -25, 532, 86, 7, 649, 190, 593, 208, 26, 106, 99, -167, 42, 334, -73, -97, -49, 0, 110, 142, 77, -2, 62, 73, -173, 235, 158, -310, 317, 74, 1180, 1299, 107, 168, 85, 166, 557, 218, -209, 61, 310, -130, 118, -231, 537, 102, 151, 44, 39, -50, 55, 308, 2292, 131, 148, -150, 146, 191, 148, -674, -72, -1654, -48, 976, 90, 96, 259, 111, 66, 389, -539, 160, -654, 153, 143, 133, 921, 383, -496, 235, -368, 605, -39, 20, -477, -98, -236, 84, 89, 2, -42, 44, 71, 169, -204, -179, 120, -467, -33, -333, -51, -387, 357, -34, -147, -809, 92, 30, 52, -289, 603, 786, 318, -39, -52, 761, 28, 470, -302, 493, -231, 79, 50, 167, -378, -15, 2244, 68, 503, -59, -26, 20, 572, -139, 410, 424, 364, -80, 76, -193, 390, 85, 249, 281, 32, 447, 368, 149, 44, 832, -287, -69, 161, 237, -720, -98, 93, 76, -112, -93, 95, 362, 449, 496, 100, 489, 84, 180, -278, 372, 346, 112, 11, 171, 115, -335, 448, -243, 23, -98, 80, 561, -286, -256, -5, 208, 480, 501, -230, 59, -62, -720, 285, -133, 295, 187, 209, 89, -85, -720, -53, 224, 220, 43, 209, 140, -62, 166, -21, -51, -472, -89, -254, 152, -18, -1057, 719, 216, 418, -81, 27, 265, 312, -232, 123, -119, 337, -108, 273, 617, 1485, 784, 93, -95, 212, 27, 189, 160, 47, -1226, -245, -130, 230, 42, 60, 246, -190, 33, 209, -228, 229, 18, 987, -110, 70, -876, 79, 59, 185, -248, 906, -97, 225, 107, 54, -120, 118, -210, 101, 568, -56, 27, 506, 529, 188, 122, 26, 279, 145, -887, -4, 1177, 283, 96, 10, 169, 203, 195, -195, -253, 138, -570, -129, 221, 656, 181, 332, 439, 169, -991, -87, 203, -28, 232, 426, 512, 16, 74, 75, 500, -1199, 104, -114, 110, 178, 66, -272, -88, -184, -351, 411, -61, -16, 53, -109, -127, 39, 179, 4, -111, 68, 6, 476, 22, 217, -239, -31, 1718, 194, -53, -22, 117, 360, 373, 69, 54, 757, 811, -655, 92, 239, 326, -75, 80, -10, 16, 361, 80, -16, 10, 381, 348, 418, 17, 234, 353, -263, 40, -115, 45, 173, -188, -281, 420, -454, 158, -95, 325, 103, 67, -13, -45, 482, 300, 180, -365, -83, 176, 398, 176, -80, 1315, 358, 725, 279, -32, 335, 28, -296, 876, 172, 726, 129, 200, 223, 152, 429, -196, -49, 93, -167, -106, 165, 315, 592, 339, -94, 208, -158, 80, 367, -54, -1440, -70, -22, 231, -393, 629, 308, -172, -508, 247, 176, 320, 350, 170, 762, -135, 624, 349, 548, -130, 21, -150, 402, -61, 261, 488, 335, 285, 152, -222, 262, 31, -105, 66, -159, 426, 281, 7, 24, 186, 115, -51, 31, 56, 368, 76, 538, 241, 66, 295, -182, 35, 467, 203, 485, -35, 353, 228, 96, 347, 247, 258, 179, 2981, 240, 379, 11, 729, 1771, 206, -360, 58, 438, 555, 236, 6, 333, 284, 56, 145, 1143, 329, 416, 233, 96, -6, -22, 330, 794, 1140, 85, 185, 73, 175, 39, 53, 79, 198, 167, 172, 199, 89, 43, 79, 1151, 112, 466, 289, 112, 33, -79, 53, -127, 121, -673, 117, 467, 460, -227, 327, 112, 180, 142, -267, -195, 148, 17, 263, 274, 33, 310, 139, -211, -29, -337, 149, 507, 76, 555, -132, 144, 111, 1454, 1105, 444, 104, 393, 351, -44, 50, 70, 308, 617, 426, -14, -95, 179, 247, 111, 806, -974, 440, 152, 152, 201, 796, 19, 252, 1175, -116, -605, -917, 1052, 118, -222, -282, 291, 108, -63, 67, 181, 153, 123, 0, -220, 323, 53, -128, 8, -146, -82, 447, 155, -275, 754, 55, 811, -413, -436, 89, 270, -109, 167, 261, 87, -24, 339, 156, 61, 543, -281, 19, 183, 458, 82, 619, -9, 271, 478, -204, -6, -442, 606, 201, 48, -682, -380, 38, -116, 144, -45, -503, 314, 269, -153, 627, 50, 70, 53, 20, -133, 141, -45, -52, 297, 289, 299, -77, 369, 275, 396, -702, 172, 388, -315, -497, -5, 119, -204, -270, 52, 358, -209, 300, -85, 136, 359, 669, 593, 363, 124, 168, 324, -173, 154, 131, 306, 428, -158, 193, 300, -81, 33, -126, -119, 343, -63, -12, 293, 32, -441, 203, -331, -197, 258, 298, 269, -518, 45, 168, 499, -20, 198, 96, 194, -268, 252, -4, 115, 340, -1122, 184, 203, 312, 54, 1554, -51, -182, 885, 117, -498, -165, 1264, -242, 102, -1733, 458, 18, -33, 360, 150, 581, 450, 519, -193, 769, 143, 26, -253, 1303, 242, -156, 54, 190, 216, 318, 191, -14, -113, 417, -123, -47, 488, 214, 487, 201, 97, 522, -2, 219, 76, -8, 11, -120, -553, -14, 284, 104, 29, 262, 87, 179, -154, 157, -6, 145, -51, -67, -259, 161, 45, -232, 308, 48, -542, 249, -73, -155, 98, -23, -76, 374, -91, 224, 256, 145, 565, -48, 55, -12, -96, -85, -141, -97, 382, 126, 178, 152, 246, -198, 712, 18, 10, -80, 123, -132, 131, 3, 238, 460, 163, 469, -237, 149, 200, 482, -357, 33, 0, 229, 204, 492, 277, 779, -41, 320, 107, 424, -230, 489, 81, -200, 171, 237, 198, 399, 75, -36, 136, 407, 141, 5, 451, 451, 100, 217, 466, -189, -236, 43, 125, -197, 147, 163, 218, 2, -305, 341, 20, 41, 54, 146, 18, 217, 113, 77, 62, 131, 75, 346, 394, -165, 42, -87, 156, 14, -77, -231, 138, 23, -34, 166, -9, -79, 157, 363, 21, 15, 100, -105, 28, -384, -257, -66, 318, 6, -28, 300, 51, 323, 39, -195, 43, -434, -33, -266, 224, 131, -181, 167, 434, 411, -682, 123, -29, 443, -242, -98, 220, 37, 113, 162, -473, -76, -192, 278, 177, 20, 79, -41, -346, 436, 260, 305, 1567, 78, 722, 34, 57, 477, 741, -81, 1177, 390, -357, 262, 1273, -13, 397, -240, 306, 215, 208, 772, 996, 159, 170, 1248, 363, 964, 197, 156, 154, 186, -106, 408, 497, 313, 267, 218, 183, -109, 62, -372, 115, 65, 372, -242, 35, -878, 158, 2532, 96, 103, 263, -175, 179, 74, -456, 205, 166, -9, 264, 94, 272, 67, 248, -421, -105, 313, 93, 171, 177, 1592, 599, 148, 205, -32, 304, -247, 160, -42, 241, 857, 283, -241, 239, -105, 129, 10, -74, 169, -101, 10, 317, -129, 69, 169, 1082, 503, 405, -356, 274, 415, 87, 187, -5, 408, 987, 145, -279, 373, 257, 544, 32, 632, 574, -46, 49, 65, 186, 326, 125, 230, 401, 100, 561, 783, 250, 1020, 47, 213, 136, 579, 147, 126, 236, -15, -113, 285, -1313, 427, 333, 18, 581, 283, -156, 91, -50, 59, -21, 341, -278, -23, -616, 700, -751, 176, -334, 293, -670, 275, -357, 192, 102, 649, 481, -84, 125, 90, 410, 263, 76, 233, 116, -61, 162, 273, 520, 495, -73, 254, 529, 158, 268, 307, 123, 297, -167, -709, 109, -61, -190, 13, 144, 551, 197, 27, 417, 3533, 87, -111, -170, -439, -180, 290, -34, 247, 519, 790, 98, 215, -183, 79, 146, 241, 305, 225, 224, 9, 241, 467, 286, 386, 1293, 206, 35, 481, 267, 152, 343, 58, 217, 158, 54, 113, 256, 140, 141, -123, 224, 146, -8, 196, 28, -293, 73, 5, 12, -45, 386, 160, 109, 184, 1005, 183, 512, -16, -128, -113, 144, 104, 71, 73, 307, 338, 618, 81, -91, 4, 101, -17, -804, -47, -43, 34, 152, -46, -424, 76, 261, 232, -54, -101, -160, 67, 82, -133, 17, 218, -68, 389, 234, 215, 407, 77, 85, 237, 400, 135, -6, -91, 77, -130, -147, 33, 8, 530, 240, 354, 177, 96, -267, 509, 96, 93, 383, 24, 143, 588, -157, 221, 805, -884, -170, -26, 176, 514, 744, 78, -273, -111, 1741, -442, -201, 355, 70, 186, -30, 94, -29, 217, 223, 288, 722, -242, 235, 231, 226, 190, 540, 211, 185, 622, -302, 192, -141, 3, 196, -150, -385, 441, 61, 191, 7, 99, 242, -57, -25, -588, 458, 147, 76, -58, 93, 201, -372, 44, -67, 701, -64, 1547, 225, 10, 282, 43, 122, 1012, 44, -63, -96, 475, 449, 635, -233, 28, 341, 172, -318, 49, -151, -34, 271, 134, 471, 201, 628, -34, 49, 33, -195, 124, 722, -6, 214, 66, 217, 211, 285, 1004, 23, 81, 207, 251, 332, 199, -186, 401, 738, -124, -11, -91, 491, 538, -125, 103, 65, 111, 510, -37, 253, -2, -148, 1, 83, 302, 341, -35, -97, -52, -61, 213, 149, 220, 662, 384, 2056, -45, -333, 269, 354, 278, 947, 19, -585, 95, 678, 214, 923, 56, 1942, 599, 398, -356, 389, -83, -162, -83, 43, -263, 99, 311, 145, 341, 877, 25, -122, 102, 135, 240, -260, 251, 913, 564, 54, 1310, -284, 631, -820, 863, 42, -143, 349, 448, -26, 961, -61, -90, 405, 272, 145, 115, -90, 380, 258, 34, 69, 225, 103, 775, -334, 91, -62, 256, 113, 430, 880, 78, 654, -298, -44, -467, 596, -190, 194, -158, 267, -595, -553, 326, -156, 110, 173, 352, 265, 407, 36, 329, 194, 461, -67, -23, 109, 231, -261, 800, -89, -62, 379, 391, 177, 119, -227, -366, 327, 89, 91, 192, 59, 8, 510, 82, 28, -66, 127, -29, 179, -97, 57, 238, 346, 154, -111, 192, 235, 240, -2, 170, -329, 203, 34, 196, 92, 9, 171, -3, -9, 42, 48, 1236, -131, -4, -163, 138, -107, 493, -42, 139, 2004, -71, -9, -1266, -2, -592, 194, -19, 282, 128, 589, 247, 166, 118, 526, 233, 287, -211, 170, 22, 238, -24, 1043, -189, 60, 952, 115, 192, -6, -19, -58, -8, -13, 300, 279, 528, -95, 409, 178, -55, 35, 254, -21, 168, 122, -123, 327, 316, 612, -107, -4, 92, 223, -742, 487, 73, 269, 70, 53, -6, 142, -49, 878, 226, 222, 139, 791, -136, -206, -241, -57, 411, -6, 381, 37, 3, 599, 587, -382, -154, 82, 88, 199, 500, 37, 25, -9, 132, 502, 52, -127, 19, -17, 158, 104, -82, 569, 65, 1174, -38, -183, -51, 90, -301, 409, -481, 640, 37, -249, 495, 204, 438, 471, 125, 18, 317, 273, -451, 502, -207, -263, 56, 629, 288, -420, 627, 384, 654, -20, -112, 120, -134, -136, 261, -573, -111, 606, -36, 30, -67, 858, 311, 554, -161, 114, 1933, -90, -726, -838, 1004, -92, 64, 566, 262, 38, 109, 25, 443, 349, -108, -141, 599, 668, 429, 210, -145, -37, -50, 328, 140, 786, 2271, 11, 1166, 10, 361, 12, 110, -536, 1403, 110, -113, -272, 56, 45, -1196, 232, 26, -90, -289, 380, 541, 494, 64, 191, 1645, 51, 93, -656, 143, 21, -172, 696, -158, 109, 249, 207, 557, -497, 55, -450, 228, 163, 759, -40, -597, -486, 66, 322, -241, -140, 80, -90, 231, 377, -99, -247, -437, -119, 124, 187, 581, 149, 180, 104, 236, 561, 1934, 32, 291, 519, 109, 455, -55, 309, 252, -425, 68, -235, 1762, 340, 93, 165, 230, -194, 125, 38, 725, -194, 58, -212, -60, 6, 493, -153, 92, 23, 257, 216, 699, 229, 395, 454, 224, 506, -38, -26, 140, 159, 167, 149, -271, 90, 247, -27, 46, -180, 339, 103, 127, -213, 152, 175, 158, 52, 146, 162, 245, 1092, 178, 267, 344, 127, 38, 367, 173, -535, 305, 260, -3583, 246, 176, 80, 76, 382, 978, 1593, 311, -317, 150, 917, 113, 434, -264, 508, 318, 59, -16, 222, 300, 513, 263, -155, 72, 150, 18, 759, -484, 354, 209, 118, 31, 338, -278, 242, 379, -200, -267, -63, 256, 363, 82, -1482, 210, 167, -41, 599, -49, 245, 176, -2, 637, -297, -304, -164, 50, 210, 293, -219, 188, 686, -1542, -195, -152, 803, 579, 23, -181, -282, -122, 28, 599, -125, 228, 353, 121, 261, 124, 205, 77, 24, 296, -119, 160, -102, 13, -1054, 998, -86, 464, 377, 283, 86, -168, -410, 219, 2849, -11, -82, 447, -105, 154, -50, 82, -253, -64, -573, 217, 197, 142, 171, 208, 61, 182, -60, -165, -147, 79, 296, 25, -242, 128, 458, 39, -702, -148, 148, 121, -573, -111, 482, 79, 74, 57, -144, 359, -24, 495, -126, 211, 244, -99, 226, 189, -253, -20, 286, -6, 476, 120, 205, 336, -96, 74, 483, 323, 148, 127, 47, 307, 796, 17, 299, -101, 482, 924, -90, 344, 241, 47, -55, -29, -418, 354, -11, 29, 224, 46, 33, 264, -232, 107, 196, 95, -68, 278, -397, -166, -78, 69, -63, 271, 274, 151, 733, 323, -1688, 225, 194, 633, 254, 95, 460, -255, 426, -23, -285, 353, 226, -464, 19, 347, -249, 285, -118, -67, -137, 42, 243, -551, -286, -351, -167, 418, -337, 71, -279, -257, -206, 83, 746, 21, 98, 22, 1478, 0, -326, 124, 666, 253, 853, -35, -5, 115, 42, 151, 258, 415, 403, 236, 197, 55, -97, -332, -39, -80, 320, -240, 1681, 193, -180, -40, -334, 58, 30, -10, 361, -3, 1181, 408, 161, 45, 199, 51, 463, 66, 307, 194, -111, -55, 1376, -3, 275, 393, -77, -53, 127, -12, 36, -204, 275, 38, 245, 313, 99, 254, 216, 43, 142, 321, 150, -679, -34, 267, 60, 458, 98, -91, 1107, 161, -309, -28, 338, 12, 304, -156, 330, -265, 300, 149, -183, 45, -40, 192, 335, 749, 243, -30, 41, 102, 761, 359, -95, 328, 153, 633, 10, 375, 236, 205, 117, 457, 52, -29, 263, 61, -1, -78, 217, 97, -51, -225, -122, -12, -285, -60, 106, 614, 33, 525, 147, 32, 214, -115, 290, 236, 159, 179, 153, 416, 202, 454, 116, -256, -123, 276, 66, 88, 95, 459, 689, 176, 139, 148, -30, 872, 292, 549, 301, 459, -121, 33, 110, -19, 162, -341, 63, 690, 383, 144, 107, 146, 69, 573, 174, 172, 85, 44, 306, 173, -23, 2, 173, -22, 185, -145, 339, 154, 340, -10, 109, -52, 234, 225, 322, 178, 282, 103, 222, 312, -139, 192, 113, 298, 153, 110, 562, 906, 280, 158, -20, 42, -138, 144, 94, -30, 150, 526, 460, 188, 522, 302, 612, 634, 63, 426, 153, 263, -30, 165, 208, -181, -22, 54, 56, 115, -63, 162, 57, -309, 191, 330, 178, 101, -87, 1651, -98, 284, 471, 436, -968, -615, -538, 220, 284, 316, -479, -75, -404, 265, -94, 498, 182, 528, 403, 301, 288, -268, 268, 40, 556, 52, 10, 159, -128, -192, 23, 91, 132, 4, -176, 348, 1350, 49, 168, 215, 206, -47, 97, 67, 378, -178, 576, -28, -164, -65, 166, 95, 265, -23, 331, 1639, 197, -126, -4, 302, 53, -511, -72, -60, 44, -358, 215, 195, 101, -14, 222, 120, 90, -56, 209, 125, -45, -421, -152, 119, -119, 84, 43, 171, 217, 214, 256, -89, 265, -27, 47, 219, 57, -872, 1217, -496, -1340, -49, 476, 39, -173, 196, 140, -20, 1970, 306, 352, 163, 463, 11, -20, 444, 1529, 227, 217, 283, -189, 38, -15, 37, 774, -120, 29, -57, 210, -188, 43, -79, 575, 556, -76, 450, 421, 749, 142, 239, 304, 8, 349, -166, 245, -632, 944, 486, 493, -505, 43, 45, 499, 313, 38, -26, 246, 48, 373, 37, -37, 57, 323, 57, 25, 42, 252, 323, 438, 14, -21, -15, -1056, 344, 193, -84, 496, 325, 9, 94, 233, 666, 560, 225, -84, 161, 295, 884, -717, 457, -292, 97, 960, 45, 78, -66, -78, -95, -24, 1103, -19, 165, -62, 424, -59, 20, -1127, -44, 173, 86, 171, 173, -285, 565, 39, -154, -241, 459, 307, 975, 205, -162, -177, 110, 23, -276, 202, -97, -193, 395, 158, -28, -351, 687, 500, -105, 553, -88, 140, 308, -148, 88, 128, 369, 55, 859, -107, 430, 346, 301, -183, 343, 13, 199, 454, 406, 694, -2010, 80, 786, 564, -70, -272, -43, 112, 37, 16, -38, 234, 82, -137, -95, 20, 21, 760, 672, -166, 801, 270, 241, -317, 445, 479, 184, 211, 971, 353, 719, -91, -179, 812, -292, -49, -178, 75, 460, -31, -141, -612, -201, -73, -192, 144, 158, 140, 13, 63, 185, 266, 206, 283, -16, 263, 316, 153, -53, 206, 231, 196, 164, 251, 295, -479, -195, 771, 235, 543, 243, 622, 181, -41, -103, 396, -27, -85, 124, 114, 345, 0, 224, 101, 259, -973, 781, 492, 97, 184, 82, 191, 507, 166, 93, 245, 108, 46, 197, 173, 206, 976, -40, 267, 633, 77, 191, 231, 1108, 241, 302, 49, -308, 56, 448, 589, 93, 98, 797, 409, 58, 276, -123, 221, -268, 346, 121, 335, 252, 527, 517, 568, 120, 247, 284, 322, 261, 241, 740, 363, 551, 179, 147, 452, 127, 64, 348, 171, 77, 57, 69, -67, 466, 445, 155, 329, 314, 342, 80, 240, 153, -78, -171, 554, 65, 496, 145, -30, 230, 229, 412, -137, 435, 460, -187, 13, 352, 640, -304, -14, 440, 100, -210, -157, 24, 660, 477, 182, 468, 45, 166, 349, 81, 185, 174, 387, 206, 20, 230, 146, 127, 462, 286, -185, 118, 494, -183, -8, -184, 248, 558, 810, 52, 292, 112, 200, 47, 49, -447, 171, 88, -105, -219, 76, 933, 63, 203, 117, 586, -321, 97, 200, 136, 222, 56, 80, 41, 48, -253, 446, 24, 393, 315, 591, 204, 684, 293, 154, 12, 524, 215, 107, 389, -2, -76, -172, 282, 187, 317, 123, 376, -832, 620, 312, 141, 209, 232, -379, -50, 79, -771, -43, -554, -131, 71, 154, -75, -76, 15, 21, 273, 13, 135, -354, -41, 316, -300, 84, -41, 202, -127, 138, -52, 495, 125, 301, 716, 483, -74, 218, 362, 346, -20, 221, -2, 156, 208, 161, -1, -118, 27, -5, -12, 206, 214, 34, -299, 15, -99, -274, 154, 387, -79, 183, 493, 175, -378, 49, 375, 310, 78, 266, 671, 216, 380, -334, 216, 28, -2, 854, 278, 331, -165, 517, 51, 72, 99, 29, 255, -74, 49, 32, 178, -260, 119, 255, 160, -193, 82, -556, 14, 523, 361, 471, 5, 32, -24, 383, 31, -220, 464, 278, 120, 410, 139, 222, 51, 59, 157, -112, 72, 90, 189, 4, 21, -257, 257, 157, -15, 27, 291, 130, 45, 112, -22, 350, 489, -261, 478, -32, 455, 49, 409, 213, -517, 33, -7, 125, 62, -127, 93, 272, 14, 1153, 863, -320, 423, 96, -164, -244, -31, 914, 81, -242, 1031, -387, 8, -153, 314, 281, 178, -37, 473, 123, 932, 399, -243, -55, 146, -13, 117, 317, 138, 157, 138, 82, 981, -82, -2, 419, 317, 350, -41, 244, -65, 192, 142, 339, -207, 194, 122, 314, 517, 1000, 279, 331, 230, 11, 352, -23, -185, 466, 1004, 135, 441, 309, 431, 53, 93, 122, -67, -35, 525, 188, -48, 293, -49, 276, 141, -64, 246, 336, 34, 3, 137, 138, 250, 283, -152, 155, -58, 372, 328, 183, -96, 14, -21, 237, 48, 277, -89, 423, 1743, 133, 381, -246, 102, 88, 295, -84, -81, -213, 40, -214, -282, 59, -11, 79, -56, 255, 348, 141, -90, 470, 51, 224, 283, -108, -3, -77, -8, 112, 578, -250, 345, 137, 205, 117, 29, 131, 188, 85, 197, 67, 120, 202, -39, 131, 153, -230, -32, 67, 175, 564, 700, -105, 34, 202, 201, 227, 216, 135, 29, 218, 134, 705, 187, -263, 330, 48, 62, 30, 193, 164, -138, 311, 156, 277, 299, 46, -626, 1116, 224, 339, 401, 40, 35, 257, 208, 253, 21, 205, -5, 293, 56, 769, 1407, 126, 517, -44, 10, 21, 295, 746, -601, 192, -120, -1224, 22, 659, -308, 297, 228, 123, 56, 215, 288, -82, 240, 85, -30, -55, 303, 111, 38, 171, 104, -141, 200, 241, 27, 243, -288, 158, 235, 202, -65, -152, 495, 429, 425, 177, 247, 295, 77, 281, -51, 222, 253, -223, 344, 492, 721, 354, -436, -103, 594, 32, 234, 236, 156, -186, -20, 257, -469, 342, 260, 86, 270, 225, -83, 263, -62, 65, 429, 223, 202, -731, -28, -61, 355, 704, 104, 210, -46, 127, -15, 214, -161, 251, 440, 422, 94, 191, 284, 499, -127, -180, -40, 97, -105, 94, 62, 40, 1155, -124, 411, 398, 431, 169, -216, 28, -17, 97, 573, 664, 147, 226, 477, 376, -91, 340, 348, -394, 220, 781, 280, 617, 249, 48, 181, 119, -89, 35, -130, 328, 298, 469, 257, 7, -202, 13, 256, -82, 41, 108, 286, 95, -31, -138, 496, 30, 122, 29, -10, 63, 952, -178, -38, 106, 103, 109, 1004, 152, -36, 695, -330, 295, 6, 114, 143, 655, -73, 155, 422, -40, 219, 57, 964, 22, -235, -50, 384, -46, 22, 194, -126, 162, -5, 104, 69, 182, 11, 401, 174, 36, -162, -49, 665, 371, -49, 122, 153, 227, 139, -15, 460, 26, -88, 428, -24, 271, 102, 63, 48, -46, -158, 140, -57, 187, 153, 617, 55, 92, 92, -69, 22, -156, -71, 146, 189, -226, 204, 71, 384, 35, -91, -257, 200, 346, -49, 40, 545, -109, -232, -238, 60, 113, 27, 39, 340, 166, 262, 103, 362, 274, 269, 64, -249, -100, 98, 134, 215, -8, 110, 138, -175, 245, 380, 1338, 322, -278, -48, 202, 221, -97, -120, 542, 155, 122, 204, 456, 1750, 76, 442, 68, 119, 84, 727, -210, 83, -227, 625, 127, -189, 69, -335, 37, 273, 527, -369, 218, 194, 239, -22, 230, 147, 205, 401, 687, 164, 145, 44, 127, 184, -314, 491, 295, 592, 400, 135, 866, 204, 264, -15, 298, -178, 26, 137, 286, -246, 355, 186, 82, -51, 813, 280, 380, 324, 561, 397, 494, 329, 256, 42, 485, 315, -329, -208, 145, -11, -110, -296, 165, -7, -61, -157, -252, -30, 73, 323, 1223, 28, -160, 108, 98, -96, 290, 79, 40, -32, -12, 393, 640, -589, 276, -324, 180, -38, 128, 213, 6, -8, -226, 48, -140, -307, 153, 127, 47, 223, 1, 223, 170, -180, 74, 85, 293, 135, 114, 756, 312, 203, 71, -139, 213, 133, -43, 10, 135, 324, 59, 30, 415, 302, 177, 173, -59, -154, 154, -145, -37, 5, 351, 492, 111, 636, 197, -186, 325, 28, 9, 103, 208, 154, 134, 57, -248, -18, -73, -92, 17, 360, 66, 346, -144, -89, 442, 41, 24, 35, 21, 182, 76, 172, 168, 76, 1005, 363, 8, 429, 248, 281, 534, 222, 57, -34, 410, 83, 165, 522, 126, 55, 472, -555, 249, -72, -41, 348, -89, 694, -96, 44, 270, 64, -176, 337, 921, 11, 312, 9, 233, 808, 432, -91, 393, 133, 147, 635, 333, 234, -763, 74, 642, 502, 18, -139, -266, 364, -114, 244, 212, 37, 227, 81, 196, -101, -101, 640, 981, -35, 1530, -115, -26, -799, 146, 173, 197, 258, 685, 497, 567, 286, -25, 751, -1, 15, -82, 389, 304, 99, -2, -501, 8, 259, -22, 344, 619, -421, -374, 372, -62, 205, 154, 258, -33, -1, 93, -145, 301, 716, 427, -218, 50, 131, -88, 696, 160, 145, 340, 630, -935, 475, 532, -44, 792, 82, 515, -249, -300, -761, -116, 440, 211, 18, 159, -9, 293, -133, 237, 29, 663, -205, -177, -75, 353, -183, 181, 587, -419, -91, 222, 1205, 206, -130, -139, 201, 565, 42, 324, 516, 93, 212, -12, -91, -42, 377, 215, 77, -39, -79, 123, -183, -267, -507, -549, 50, -197, -12, 100, -65, -236, -55, 46, 330, -147, 878, 136, 354, 214, 42, 484, 243, 784, 717, -43, 59, 278, -35, 79, 1033, 181, -168, 678, 735, -890, 535, 199, 140, 409, 6, -611, 217, 175, 174, 269, 225, -108, 39, 184, -172, -100, -67, -157, 87, 194, 221, 236, -38, -32, 142, 251, 399, -744, -248, 434, -377, 731, 131, 31, -36, 219, 748, 422, 154, 52, 597, 272, 141, 207, 198, 325, -8, -356, 61, 406, 382, 149, 10, 17, 358, -452, 272, 835, 2078, 171, -267, -40, -11, 111, 839, 111, 134, 787, 1296, 150, 44, 503, 413, -322, 112, 245, 359, 104, 193, -75, 323, 127, 158, -153, 272, 775, 77, 205, 201, -147, -758, -80, 1368, 214, -68, 171, 374, -513, 116, -86, 271, -104, -581, 275, -211, 117, 433, -13, 55, -308, 297, -34, 411, 184, 323, -188, 215, -669, 235, 422, -148, 355, -224, 242, 496, -606, 432, -191, 375, 185, -170, -31, -142, 488, -164, 238, 207, 474, -629, -265, -380, 428, -696, 372, 641, 5, -282, 295, 315, 129, -139, 204, -50, -103, -179, 342, 307, 142, -691, -203, 564, 200, -143, 261, -38, -27, -63, 185, -214, -566, -157, 1169, 16, 128, -248, -141, 958, -295, -28, -133, 623, 165, 285, 149, 409, 102, -176, 110, 513, 324, 103, 265, 230, -420, -52, 51, 81, -17, 110, 63, -510, 59, 251, 197, 110, -1179, 1, -2, 170, 81, 230, -6, 27, 292, 219, 33, -79, 145, -394, -411, 777, 179, 974, -418, 793, 237, 259, 268, -242, 288, 122, -702, -118, 633, -171, -487, -76, -225, 194, 160, -499, 85, 88, -214, 41, 16, 156, -230, 76, 23, 648, -589, -732, -81, 641, -113, -645, 592, -348, 290, 30, -23, -77, 82, 103, -74, -487, -188, 478, -1290, -193, -19, 335, 201, 4, 148, 245, -524, -27, -153, -28, 208, -546, 100, -88, 129, 50, -62, 11, 402, 516, 254, -130, 309, -35, -554, 122, 294, -1308, 237, 190, -167, -199, 119, 261, 717, 38, 466, 540, 89, 16, 367, -193, 205, 787, 213, -174, 159, 528, 202, 383, 228, -15, 119, 425, 168, -319, 344, 726, -229, -8, 147, 560, 429, 327, -382, -15, 569, -97, 824, -290, 209, 78, 174, 777, -210, -115, -22, 750, 90, 935, -149, 60, 90, -544, 197, 598, 223, 39, 345, 462, 576, 102, 41, 179, 328, 477, 153, 46, 416, 311, 171, 16, 157, 366, 15, 471, -97, 71, -264, 79, 36, -30, 77, 96, -92, -535, 187, 73, 363, 302, 506, 104, -38, -36, 444, 640, 259, 284, 283, 34, 256, 528, 728, 334, -105, 191, 385, 399, 267, 43, -29, 51, 334, 261, 257, 236, 805, 379, 205, 140, 364, 284, 132, -641, 460, 105, 58, 211, 16, 447, 644, 22, 66, 100, 51, 872, 402, 55, 704, 65, 245, 631, 253, -15, 263, 228, -214, 62, 288, -9, 371, -540, 256, 432, 210, 1322, 552, 1490, 635, 575, -5, -145, 150, 91, 135, 30, 60, 427, 398, 75, 399, 193, 96, -99, 32, 175, 154, 37, 516, 177, 756, 226, 12, 457, 52, -138, 147, 503, 170, 504, 31, 38, 334, 346, 727, 260, 118, 186, 630, 630, -256, 592, 876, 626, -169, -738, 69, -62, 151, 282, -326, 124, -391, 121, 89, 269, 43, 1082, 481, 355, 42, 275, 308, -2, 426, 428, 332, 417, -119, 287, 13, 61, 188, -21, -48, -94, 367, -143, 162, 118, 187, -339, -155, 160, 213, -298, 468, 8, 160, -245, 160, 61, 243, -37, 463, 629, -166, -538, 699, 527, 416, -170, -443, -3, -74, 220, 104, 155, 51, -154, 139, -129, -2231, 221, 371, -359, -129, -1383, -2043, 172, -60, 145, -468, 380, 80, 101, 503, 233, 134, 226, 222, 190, 192, 239, 628, 399, 2, 241, 454, -25, -285, 449, -528, 76, -298, 367, 222, 2, 102, -29, -314, 373, 252, 2642, 210, 49, 512, 295, -631, -290, -4, -308, 20, 423, 205, -41, -154, 386, 807, 501, -27, 87, -120, -33, 386, -186, 980, -287, -173, -9, 247, 14, 504, -182, 630, -28, 341, 140, -10, 205, 379, -136, -446, 478, 211, 125, -196, -39, 28, -412, 374, 14, 280, -232, -160, -192, -36, -163, -26, 228, 334, 43, 243, 228, -62, -37, 2010, 195, 607, 800, 45, 454, -283, 489, -55, 212, -271, 31, -61, 34, 10, 10, -73, 46, 341, -307, 1312, 263, 65, 349, 120, -80, 138, -68, 94, 14, 424, 166, -1270, 443, 245, -184, -52, 450, 159, 786, 588, -457, -140, -74, -67, 158, 726, -60, -439, 463, -738, 138, -350, 433, 47, 6, 671, -46, -128, 166, 250, 592, 85, 629, -96, 388, -119, -60, 1221, 343, -85, 222, -10, 385, 484, 291, 82, -120, -35, 754, 149, -69, -36, 107, 243, -77, -56, 256, 227, 559, -221, -241, -73, -1, 766, 622, -168, 562, 180, -61, -297, 298, 335, 122, 308, 123, 623, 282, 467, -63, 1172, -37, -4, -118, 96, 642, 110, -142, -412, -497, 37, -242, 86, -3, 269, 137, -313, -58, 209, 82, 150, 459, 276, 582, -183, 123, 395, 161, 95, 538, 111, 71, 178, 6, 31, -200, 77, 107, 228, 572, 82, 386, 398, 363, -130, 179, 822, -92, 277, 73, 201, 327, 228, -395, 172, 92, 117, 122, 152, 118, 98, 537, 36, -105, 125, 115, -3, 187, -144, -316, -78, 91, -172, 238, 482, -666, 414, 150, 1067, 212, 29, 243, 21, 326, 40, -171, -110, 64, -71, -41, 282, 340, 414, 154, 1220, 141, -117, -3, -245, 166, 44, -65, 120, 692, 50, 73, -88, 299, 113, 446, 106, -574, -193, 335, -133, 766, -191, -12, -42, -327, -26, -6, 220, -356, -500, 314, -16, 50, 1968, 570, 574, 550, 456, 121, 35, -219, 78, 1008, -624, -496, -214, 572, 161, -81, 114, 1245, 483, -261, 347, 62, -154, -162, -433, 136, 38, 295, -461, 391, -478, 546, 302, 837, -407, 133, -40, 424, 448, -3, -790, 458, 758, 337, 99, -188, 119, 295, -185, 24, -38, 103, 211, 143, 72, 41, -449, -722, 91, 178, -123, 360, 230, -260, -321, 254, 295, 669, 649, 4, 209, -28, 547, -446, 378, -369, -262, -377, 72, 168, -654, -218, -227, 51, -8, 853, -119, 77, 82, 294, 62, 70, 84, 51, 141, 34, 95, 48, -49, 125, -207, 29, 249, 52, 574, -156, 195, 364, -231, 222, -170, 254, -60, -169, 185, 625, -195, 403, 881, -9, -55, 192, 87, 187, 385, -44, 458, -107, -68, 265, 226, -71, 125, 126, 63, 243, -108, 153, -84, 75, 171, 256, 272, 345, -14, 13, 109, 263, -2, -199, -23, -17, 220, 43, -45, -87, 152, 426, 456, 499, 21, 385, -2, 409, 153, 465, 405, -101, 0, 139, -63, 285, 1098, 31, 166, -29, 290, 152, 181, -286, 546, -122, -89, -19, 228, 156, 234, 73, 12, 385, -186, -72, -82, 67, 21, -56, 384, 422, 37, -13, 132, 26, 1281, 374, 448, 274, 419, 247, -125, 49, 29, 169, -431, 115, 803, 395, 375, -31, 260, 190, 972, 267, 115, 437, 42, 60, -19, -84, 118, 179, -90, 322, -223, 554, 284, 595, -206, 123, 32, 361, 425, 37, -62, 64, -7, 107, 314, -136, 233, 59, 276, 303, 26, 526, 384, 345, 152, -21, -73, -39, 60, 60, -136, 40, -137, 250, 34, 816, 568, 512, 537, 83, 237, 265, 291, -24, 124, 262, -196, -186, 138, 29, 148, 4, 153, 16, 91, 129, 186, -68, -44, 1188, 303, -628, 682, 376, 156, 75, -221, 618, -69, 779, 705, -59, -66, -452, 389, 398, 31, 492, 544, 378, 247, 37, 754, 199, 51, 269, 218, 135, 233, -221, 431, 63, 527, -82, 741, 281, -151, 332, 872, 66, -111, 529, -157, 94, -161, 610, 81, 137, 159, -122, 104, 205, -35, -179, -45, 471, 607, -38, 126, 602, 36, 430, -317, 109, 179, 245, -68, 480, 171, 562, 553, 525, 540, -482, 207, -85, -310, 150, -808, -489, 541, -152, 599, 69, -141, 43, 201, 465, 132, 1052, 161, 550, 497, 204, 7, 953, 250, 267, 400, -111, 288, 247, 246, 12, -23, 149, -11, 25, 689, -12, 430, 407, -135, -98, -78, -55, -21, 369, 699, 78, 117, -223, -34, 44, 56, -29, 236, -121, 105, 349, -268, 141, -31, 310, 137, -193, 26, 96, -170, 18, 213, -5, 311, -30, -66, -66, 112, 45, 203, -56, -156, 23, 144, 261, 194, -58, 55, 126, 111, 237, 10, 151, -4, -36, 133, -1, 103, 182, 365, 434, -37, -251, 178, -28, 199, 126, 673, -15, -259, 11, 68, -392, -107, -68, -7, 194, -9, 98, 158, 292, 287, -236, -117, 261, 152, 137, 200, 43, -6, 278, 456, -23, -14, -111, 123, 347, 140, 13, 215, 106, -696, 31, -256, 257, 199, 319, 116, -295, 427, 103, -41, 374, 341, 225, 136, 442, 29, 504, 193, 286, 339, 329, 259, 451, 72, 47, -179, 63, 372, -69, -11, 83, -17, 69, 85, -55, 449, -150, 321, 191, 388, 8, 487, -42, 167, 160, -585, -360, -292, 441, 223, -805, 107, 217, 61, 656, 166, -129, 111, 178, 2, -188, 230, -27, -82, 93, 65, 294, 348, 256, 308, 57, 172, -3, 244, 533, -30, -333, 450, 351, 473, 245, 69, 138, -64, 352, 533, 80, 160, 21, 57, 121, -46, 79, 499, 46, -123, -189, 143, 282, -245, 126, 216, -88, 416, 229, 327, -116, 243, -181, -179, 133, -256, 123, 447, 228, 87, 157, -166, 202, 17, 214, 166, -20, 129, 39, 4, 18, 403, -2, -76, 170, 485, -97, 32, 170, 199, 81, 98, 123, 28, 136, 222, 288, 299, 168, -3, 188, -119, 114, 425, 162, 24, 97, 31, 578, 356, 137, 68, -17, 70, -117, 105, 13, -2, 84, 25, 294, -31, 259, 173, 278, 218, -141, 68, 134, 241, 91, 145, 138, 87, 78, 396, 31, -301, 11, -20, -27, 59, 29, 192, 175, 110, 541, 620, 86, 337, 299, 400, -164, -49, -212, 296, 602, 265, -7, 169, -208, 24, 31, -337, 68, 187, 40, 111, 544, -263, -38, 167, -83, -90, -80, 460, 61, -701, 376, -45, 150, 138, -196, 457, 635, 111, 135, 422, 134, 55, 61, 8, 114, -46, 94, 61, 97, -26, 191, 448, 541, 298, 76, 647, -64, -186, 620, 68, -183, -140, -48, -30, -81, 226, 146, 64, 375, 93, 142, 328, -83, -152, -93, -109, 79, -242, -132, 328, 357, 318, 57, 136, 333, 124, 164, 158, 57, 189, -182, 165, -79, 698, 586, 276, 6, -91, 5, 355, 112, 398, 295, 20, 150, 24, -942, -330, -416, -36, 153, -2, -134, -71, -71, -93, 266, 369, -40, 322, 504, -207, 41, 318, -230, 487, 20, 544, -115, -143, 427, -109, -111, 229, 25, 69, 404, -75, -65, 89, -101, 88, -648, -46, 64, 170, -70, 173, -225, -236, -126, 60, 256, 455, -147, -433, 161, 687, 73, 80, 285, -12, 185, 74, -214, 434, 385, 376, 261, -105, -780, 423, -412, 76, -6, 364, 102, -181, -104, -231, -471, -234, -134, 229, 199, -269, -44, 219, 309, -90, 6, -36, 236, 330, 531, -100, 339, 248, -224, 96, 38, -252, 82, 382, 66, -35, 796, 416, 483, -87, 58, 12, 373, 168, 202, 155, 195, 75, 257, 57, 14, 384, 41, 627, 251, 136, -99, 410, 150, -66, 123, 437, 14, 113, -46, 230, 412, 59, -178, 138, 82, -507, -13, 219, 144, 101, 17, 340, -21, 152, 177, 258, -11, -189, -331, 78, 102, -149, 222, 1196, 299, 511, 551, 742, 140, 44, -83, 519, 25, 61, -239, 24, 102, -453, 98, 1059, -43, 567, 188, 227, 249, 21, 252, -207, 140, 90, 76, 63, -61, 85, 166, -53, 709, 60, 26, 491, -178, 159, 140, 68, -74, 178, 343, 575, 214, 199, 56, 247, 154, 676, -89, 207, 96, -253, -244, 44, 113, -156, 390, 755, 219, 131, 444, 65, -81, 434, -265, 354, -26, 411, 114, -204, 68, -103, 160, 276, 6, -50, 215, 339, -100, 204, 145, 552, -186, -97, -346, 710, -298, 671, -237, -393, -120, 270, -268, 175, -111, 133, 357, -36, -88, 101, 92, 207, -105, 35, -158, 85, 647, 565, 1042, 47, 351, 914, -165, 129, 736, 431, -111, -226, -202, -41, 289, 149, 53, -192, 277, -195, 147, 309, 603, -118, 262, 319, 394, 1006, 421, -163, -47, 301, 41, 31, 351, 101, -1781, 465, 396, 399, 26, -61, -50, -16, 324, 819, -106, 382, -83, -10, 120, -809, -1228, 159, 198, 531, 113, -317, 437, 41, 83, 104, 236, -184, -116, 120, -8, 213, 437, 11, -111, 50, 66, 121, 91, 120, 104, -300, 141, 51, 136, -63, 265, 45, -51, 27, 207, 74, 382, -40, -61, 261, -808, -312, -74, 372, 48, -629, 114, -25, 568, -154, 980, 262, -84, 20, -57, -74, 20, 79, 438, -77, 65, -594, 162, -139, -87, -166, -19, -5, -59, 717, 483, -1311, 124, 172, -103, 242, 370, 293, -379, 112, -414, 306, -167, 115, 196, -347, 370, 260, 471, 31, -53, 170, -4, 290, 1281, -232, -42, 20, 384, 33, 942, 218, 228, 374, 158, -533, 243, 141, -2, 402, 303, 276, -402, -275, 139, 37, 100, 87, -111, -29, -208, 186, -3, 219, 2, 164, -163, -21, -127, 334, -264, 80, -4, -71, 199, 216, 20, 195, 11, 565, 133, -311, -6, 219, 284, 41, -78, -388, 16, 279, 121, 53, 427, 52, -121, 162, -47, -175, 823, 462, 46, -26, -91, -157, 103, -794, 28, -316, 346, -20, 206, 139, 435, 57, -9, 416, 198, 260, 253, 325, 832, -96, -95, 99, 89, 153, -64, 108, 564, 79, 129, 70, 188, 1235, -15, -88, 163, 371, 26, -11, 612, -55, -130, 131, 44, -13, 435, 499, -265, 442, -632, 457, -35, 14, 214, -29, 1430, 223, 17, 278, 184, 116, 22, 402, 146, -97, 121, 227, 526, 40, -3, 432, 27, 298, 208, 501, 35, 161, -161, 775, 170, 13, 46, 524, 910, -47, 405, 197, 162, 214, -92, -25, 144, 35, 1147, 186, 61, 1105, 203, 153, -238, 4, 201, 106, 30, 343, 466, 859, 283, -19, 694, -35, 116, -24, 441, 909, 259, 52, -560, -217, 472, -151, 313, 611, 485, 428, 211, -300, 81, 72, 426, -26, -267, 63, -30, -56, 166, 90, -35, -219, -13, -144, -709, 265, 38, 370, 69, -328, 53, -96, -25, 204, 65, 91, 128, -1372, 86, -56, 298, 122, 62, 30, 213, 83, 30, 128, 432, 93, -527, -43, -39, 122, -345, 85, 159, 119, -1532, 185, 200, 602, 148, -25, 495, 405, -68, -87, 170, 68, 551, 68, -164, -100, 393, -214, 948, 152, -220, 329, 206, 244, 45, 328, -280, -1976, -373, 56, -192, -857, -22, 622, 12, 183, 368, 411, 76, -155, 280, -416, -146, 116, 417, 372, 333, -54, -102, 704, -20, -67, -52, 42, 86, 84, 154, 125, -6041, 449, 144, -41, 32, 349, 102, 594, 666, -167, -9, -134, -388, -342, 487, 380, -263, 244, -287, -9, -464, 94, 340, 49, 695, -85, -90, 704, 104, -25, 91, 790, -59, 701, -78, 597, 705, 317, -80, 270, 105, 345, 739, 282, 125, -501, 0, 676, 176, -79, 493, 327, 80, -118, 132, 460, -84, 421, -199, -420, -127, -216, 523, 476, -62, 416, 213, 154, -242, 193, 435, 186, 66, 97, 466, 489, 371, -85, 690, -109, 4, -347, -49, 840, 404, -40, -219, -991, -338, -45, 19, 167, 184, 5, 71, 203, 53, 55, 287, 191, -62, -20, 155, -105, 478, 336, 159, 258, 189, 133, 70, 58, 25, 345, 110, 127, 43, 116, 235, 31, 0, 17, 190, 116, -103, 95, -306, 230, 109, 309, 197, 20, 90, 1, 153, 145, 170, 166, 222, 44, -162, 237, 1211, 122, -46, 57, -122, -92, 153, -247, 247, 309, 94, -18, 33, -128, 375, 188, 173, 163, -7, -80, -304, 117, 312, 25, 143, 57, -25, -54, 180, 172, 279, 155, 697, 370, 148, 255, 9, 164, -1, 44, 348, 41, 211, -251, -58, 20, -27, 118, -33, -222, -632, 129, 53, 105, 16, 57, 273, 96, 99, 440, 241, 1039, 385, -78, 298, 147, 347, 415, 92, 69, 1, 652, 187, 35, 881, 329, -99, 172, -130, 240, -252, -63, 180, 61, 802, 22, 97, 222, 92, -186, 361, 367, 1, 617, 75, 62, 391, 110, 53, 581, 202, -52, 77, 491, 248, -604, -142, 636, 85, 68, 55, 160, 564, -185, 243, 292, -144, 297, 110, 264, 87, 92, 783, 478, 61, 609, 529, 413, -267, 286, 187, -229, 298, 674, 291, 743, 161, 38, 657, 185, 104, -106, 458, 297, 329, -46, -504, 36, 188, -64, 163, 478, 228, 77, 21, 231, 43, -154, 74, 174, -28, -75, 128, -160, -62, 71, 204, 165, 101, 195, -28, -20, -76, 87, 61, -86, -18, 38, 92, 4, -17, 34, 133, 104, 53, 133, 388, -61, 283, -26, 200, 175, 120, -86, 202, 30, 174, 146, 39, -50, -318, 163, 326, 385, 256, -175, 293, 1, 205, 116, 33, -201, -177, -22, -38, 6, 123, 124, 189, 143, -11, -36, -272, 161, 322, 27, 165, 309, 358, -20, 270, 276, 165, 142, 643, 473, 211, 289, -54, 182, -54, 72, -57, 166, 262, -13, 957, 21, 118, -1658, -127, -51, -297, 305, 76, 27, -146, 6, 708, 36, 111, 291, 198, 756, 219, -47, 142, 290, 223, 377, 349, 47, -75, 338, 69, -57, 210, 648, -24, 308, -145, 550, -440, -224, 80, 92, 623, -154, -207, 438, 204, -26, -579, 479, 80, 268, -103, 263, 461, 351, -68, 333, -68, 433, 210, 225, 74, 314, -45, 783, 838, 116, -215, 180, 654, -453, 445, 98, 215, 702, 115, 252, -58, -17, 1501, 1431, -213, 696, 301, 135, -373, 107, 496, 323, 147, 487, 263, 1690, 497, -103, 1106, -36, 114, -33, 442, 621, 600, -38, -195, -81, 1886, -200, 515, 197, -92, -160, 80, -24, 583, 125, 33, 51, 236, -285, 180, 179, 556, 137, -33, 769, 17, 258, -666, 12, 283, 592, 413, 158, 291, 369, 6, 104, -221, 89, 77, -385, 289, 26, 126, 74, 355, 385, -6, 322, 100, 480, -38, 480, -269, 173, 74, 182, 925, 30, 114, -5, 1116, 511, -81, -112, 183, 293, 122, -23, 165, 249, 67, 176, 426, 492, 111, 224, 72, 96, 32, 150, -9, -199, 129, -169, 305, -14, 303, 111, 1071, 24, 185, -16, 141, -1, 135, -50, 137, 262, 450, 247, 26, 1025, 197, 261, -32, -283, 454, 61, 244, 268, -47, -1, 29, 20, 701, -282, 260, 266, 193, 224, -240, -248, 314, 230, 168, 303, 458, 125, 296, 172, -234, -91, 226, 371, 16, 261, -238, 137, 366, 175, 333, 4, 137, -178, 77, -80, 209, 214, 217, 319, 151, 23, -149, 304, 367, 352, -23, 226, 51, 152, 114, 281, 234, 67, 48, -18, 625, -79, 360, 264, 404, 897, 329, 385, 247, 144, -71, 247, 168, -36, 240, -27, 207, 18, 896, 195, 145, 241, 140, 154, 214, 372, 274, 297, 162, -100, 248, 63, 92, -58, -67, 473, 2, -134, -63, 65, -49, 531, 551, -31, -100, -231, -405, 366, -35, -66, -35, 995, 376, 208, 5, -781, -3, 369, 167, 2038, -69, -32, 1179, 345, -1704, -289, 89, 140, 269, 402, -56, 2004, 14, 308, 64, 216, 282, -15, 599, 66, 85, 328, 241, -566, -508, 66, -4, 43, 199, -585, 127, 4, 124, -183, 192, 8, 228, 88, 220, -230, 2, -236, -473, 435, 301, -325, 203, -400, 645, 295, 93, 170, 389, 25, 133, -61, 89, -44, -52, 1155, 645, 353, 608, 181, 1307, 364, 55, 64, 48, 67, 89, -73, 45, 77, 437, -197, 122, 40, 109, 263, 298, -671, 101, 86, -333, 114, 122, 225, 132, 315, 445, 263, -19, 102, 322, 425, 1014, 178, 257, -107, 114, 416, 218, -307, -99, 846, 278, 325, 259, 535, 363, -102, -522, 467, -101, -115, 214, 120, 240, -12, 294, 232, 284, 56, 934, 494, 117, 668, 97, 83, 202, 79, 75, 358, 125, 240, 94, 242, 1364, 71, -80, 1066, 198, 215, 351, -54, -2, -19, 579, 55, 95, 128, 197, -707, 85, 65, 394, 540, 8, 259, -148, 410, -402, 147, 167, 79, 148, 294, 494, 431, 37, 109, 757, 352, 202, 82, 556, 201, 578, 116, 37, -86, 596, -46, -55, 385, -24, -168, -14, 671, 225, 163, 295, 208, 401, 164, 175, 439, 303, 331, 446, 352, 39, 302, 85, 230, -94, 180, 193, 268, 246, -216, 88, 136, 313, 94, 226, -112, 167, -19, 124, 205, 73, 77, 40, -463, 67, 137, 3, 147, -8, 452, 47, 153, -170, -285, 140, 79, -22, 484, 616, 199, -28, 382, -280, 261, 205, 38, 379, 781, 290, -10, 135, 335, 398, 202, -137, 289, 85, 475, 67, -67, -18, 85, 336, 87, 793, 233, 83, 57, 52, 0, 155, 169, 151, 33, 134, 312, 107, 301, 227, 138, 108, 266, 249, 566, 221, 495, -112, 181, 282, -52, -155, 35, 128, -183, -386, 139, 431, -41, 683, 372, 291, 124, 178, 43, 29, 175, -4, 103, 1, -206, 27, 185, -17, -109, 84, 638, 206, -122, 222, 86, 168, 195, -51, 207, 189, 162, -248, 379, -166, 515, 190, 579, -354, 97, 113, 208, 397, 113, -122, -602, 58, 125, 149, 166, -15, -80, -78, 20, 54, 628, 296, 22, -28, -23, -127, -123, 183, 211, 205, 182, 293, 212, 26, 411, 402, 280, 433, 314, -101, -133, 366, -160, 165, 10, -112, -2, -96, 184, -227, -229, 38, 84, 90, -221, -38, -143, -139, 123, 165, 635, 198, 486, 308, -41, 245, 8, 135, 362, 576, 37, 156, 195, -103, 111, -56, 222, 445, 488, 132, -411, 110, 11, -197, 361, 741, 386, -123, 111, -12, -138, 440, -41, 238, 910, 281, -107, 54, 412, 68, 432, -130, 211, 160, 58, -41, 55, 354, -227, -504, 395, 505, 149, 235, -982, 277, 530, -49, 487, 383, 737, -280, -166, -110, 374, 214, 463, 393, 16, 641, 235, -363, 134, 181, 585, 66, -110, 347, 69, 430, -50, 411, 150, 505, -97, 800, 427, 544, 558, 102, 2, 35, 196, 239, -396, 432, -303, 101, 671, -44, 183, -1472, 1022, 34, -35, 283, 238, -2623, 1016, 252, -43, -203, 416, 477, 254, 277, -2716, 60, 36, -3, -301, 323, 47, -529, 378, 108, 70, -661, 574, 132, -117, 852, -141, 720, 185, -165, 22, -7, 817, 137, 288, -137, 205, 765, 360, -185, 312, -68, 13, 320, 305, 1197, -4146, 335, 867, 626, 4, -53, 237, 69, -181, -34, 253, 15, 123, -77, -369, -83, -5, 351, 123, -191, 400, 497, -27, 182, 315, -47, 209, 178, 109, 332, 214, -7, 170, 792, -95, 147, -408, -10, 245, 72, -121, -482, -381, -1071, 315, 9, 270, -62, 200, 228, 574, 755, 453, 127, 636, 465, 184, 198, 744, 49, -373, 149, 280, -56, 439, 1629, 26, 1407, 497, 360, 229, 427, -270, 118, 1784, 410, -173, -96, 51, 49, 442, 47, 488, 32, 254, 468, 1529, 4086, 2275, -53, 245, 174, 1804, 111, 106, 596, 100, -22, 33, 335, 900, -98, -5, 277, 847, 375, 125, 410, 973, -34, 483, -709, 114, -37, -43, -11, 145, 388, 78, 169, 233, 393, 390, 306, 571, 461, 37, 56, 102, 66, 144, 40, -131, 74, 450, 3, 537, 385, 316, 14, 262, 141, 145, -231, 282, 592, 403, 162, 211, -9, -158, 473, 183, -57, 457, 375, 11, 23, -226, -210, 23, 25, 190, 400, 133, -35, 159, 393, -152, 344, 80, 105, 79, 296, 170, 550, 48, 558, 464, 299, 5, 164, 62, 378, -104, -37, 224, -299, 32, 208, 306, 16, 143, -132, 341, 141, -247, 478, -17, 388, -202, 197, 218, 392, 97, -84, -213, 414, 199, 37, 422, -19, 1158, -420, 51, 203, 385, 147, 158, -124, -215, 168, -190, 251, 28, 442, 351, -37, 448, 276, -235, 233, -93, -141, 262, 119, 38, 180, 179, -847, 323, -40, 26, 109, 479, 54, 913, -95, -658, -46, 23, 146, -296, -209, -254, -73, 383, 78, -88, -95, -197, 18, 263, -50, 30, 77, -37, -36, 954, -124, -83, -145, 171, 273, 95, -75, 608, -175, 723, 209, -152, 163, 32, 187, 136, 28, -75, 434, -61, -123, 264, 1859, 329, -16, -189, 123, 282, 107, -191, -49, -75, 223, 72, -6, 192, -354, -257, 61, 1160, 2738, -199, 307, -145, 233, 254, 151, 23, 209, 431, 86, -736, -467, 879, -127, 190, -88, 418, 160, -146, 79, -50, -1703, -71, -445, 20, 278, -369, 319, 78, 261, -120, -49, 52, 487, 482, 291, -538, 731, -14, 28, -454, 224, 14, 400, 173, -77, 278, 115, -183, 335, -14, -158, 486, -549, 87, 29, 2, -2, 776, 1077, 68, 155, 536, 66, 513, 196, 96, 278, -129, 166, 345, 28, 196, -33, 247, 255, -90, 43, 226, 212, -7, 1968, 36, 433, 31, -36, -122, 741, 55, 141, -38, -115, -104, 351, 553, 124, 18, -56, 70, 116, 74, -184, 270, 277, 104, -137, -8, 135, 281, 214, 178, -42, -20, 416, -19, 37, -139, 1015, 321, -57, -28, 111, -1079, -227, -21, -76, 578, -142, 235, 154, 272, 106, -59, 252, 210, 165, 216, -409, -1013, 73, 786, -47, -46, 275, -159, 119, 157, 203, -131, 143, 208, 97, 411, 704, 238, -29, -52, 348, 117, -1112, 108, -195, 307, 156, 1078, 299, 77, 133, 252, 210, 4, 161, 108, -41, 78, 440, 504, 115, 199, 93, 69, 149, 229, 50, 208, -81, 598, -4, -37, 234, -89, 280, -48, 300, 1519, 1545, 253, 65, -52, 214, 192, 188, 360, 304, 359, -577, 119, 159, 187, 169, 284, -11, -91, 2, 221, -6, 115, -152, 122, -108, -44, -258, 84, 578, 46, 229, -96, 280, 17, 263, 289, 95, 464, -114, 310, 249, 4, 107, 303, 333, 397, 1023, -159, -3, 0, 248, 1, -252, 156, 23, -6, -117, -227, 273, 463, 148, 70, 349, -98, -75, 100, 267, 84, 246, 170, -192, 51, 22, -21, 304, 55, 793, 283, 47, -211, -151, 456, 631, -36, 473, -105, -41, -38, 342, 253, 372, -243, 216, 126, 46, -115, 174, -168, -8, -24, 362, 249, 264, -180, -172, 95, 239, -51, -91, 620, -90, 95, -70, -204, 390, 242, 320, 199, -520, -211, 349, -476, -196, -7, 461, 55, -149, 310, 32, 777, -3, -46, -87, 409, -187, 405, 178, 222, 184, -131, 72, 359, 145, 456, -4, 210, -122, -102, 215, -331, -87, 120, -990, 109, -153, 657, 442, -67, 322, 149, 89, 2294, 402, 1122, 226, 362, -71, 40, 271, -164, -462, 34, 17, 347, 383, -109, -297, -102, 645, 584, 21, 300, 106, 164, 46, -190, 29, 301, 655, -224, 136, -201, 859, 495, 806, -2354, 269, -40, 360, 282, 294, 37, -93, 387, 665, 243, -131, 218, -152, 109, 89, 72, 384, 364, 264, 314, -86, -199, -654, 141, 52, -15, 73, 827, 535, -1353, 794, 369, 643, 2019, 306, 401, 308, 1227, -484, 393, -396, -845, -242, -37, 83, 125, -102, -168, -43, -145, -255, 52, -295, 230, -30, 54, -167, 30, 170, 20, 138, 220, -327, -168, -150, -90, 145, 152, -564, 9, -211, 33, -98, -322, 173, -87, 98, -745, 50, 97, 1345, -144, 252, 390, 74, 139, -18, 126, -286, -46, -310, 563, -406, -840, 21, 81, 37, 120, -416, 278, 16, -69, 17, 82, 119, -81, 79, 211, 410, -628, 10, -112, 205, -502, -798, 171, -36, -492, 170, 47, -25, 17, -114, 184, -249, -36, -375, -232, 191, 95, 536, 228, 11, -966, 163, -257, -87, -223, 358, -19, -566, 34, -26, -152, -1636, -121, -357, -203, 66, 135, 34, 405, 130, -84, 273, 246, 163, -64, 963, 364, -344, 341, 464, 215, 446, 829, 40, 226, -66, 391, 183, 929, 479, -70, 301, -695, 336, -173, 183, 101, 0, -414, 133, -168, 314, 3, 273, 445, -40, 18, 164, 115, 149, 627, 945, 43, 452, -19, 245, 844, 303, 53, 444, -740, 192, 450, 399, 312, 50, 107, 896, 418, 222, -286, 2, 299, -96, 1769, 83, 195, 537, -446, -295, -63, -64, 670, 348, 20, 251, -44, 358, 44, 339, 352, -30, 201, 152, 251, 185, 322, 49, 369, 108, 102, -382, 372, 288, 301, 171, 130, -245, 57, 34, 1122, 170, -158, 66, 181, -131, 109, -129, 234, 48, 97, -1065, -667, 196, 242, 673, 16, 131, -197, 145, 582, 441, 40, 148, 139, -768, 79, 274, 2, 599, 52, 1499, 261, 146, 201, -70, 123, 225, -177, 177, 183, 43, -145, 81, -183, -33, 274, -186, 570, -10, -27, 13, 14, -292, 75, 91, -103, 509, -254, 48, 40, 999, 381, -151, 846, -30, 414, 204, 36, 165, 14, 42, 17, -886, -479, 956, -966, 35, -167, 849, 109, 59, -472, 128, -450, -81, -577, 96, -34, -226, 35, 242, 75, 47, -353, 119, 111, 443, 62, -1092, 1112, 18, 125, 4, 57, 183, 240, 130, 52, 964, 16, -155, -247, -329, 98, 320, 24, -433, 8, 21, 83, 842, 75, 38, 2638, 537, -194, 62, 715, 89, 732, 156, 1056, 103, 45, -148, -170, 139, 94, -461, 62, -320, 164, -142, 216, 20, 209, 46, -61, 29, 200, -317, 549, 104, -13, -484, 114, 898, 158, -176, 78, 186, 358, -65, 78, 695, -17, -9, -291, -15, 1338, 274, 78, 108, -149, -335, 82, -171, -108, -18, 348, 68, 52, -7, -74, -153, -24, -289, -34, 227, -229, 193, 129, 273, -30, -418, 790, 213, 673, 387, 217, 450, -360, -225, 60, 145, 38, 75, -131, -150, 92, 119, 97, -202, -201, -268, 287, 40, 331, 91, -292, 15, 186, 392, -243, 87, -86, 82, -160, -41, 93, 367, -203, 575, 354, -5, 17, -262, 187, 242, -47, -155, 586, -344, -94, 171, 97, 119, 72, -109, 92, 95, -95, 109, -8, -229, -34, 249, 106, 405, -339, -333, 6, 360, 833, -467, 378, -89, 75, 124, 76, 154, -20, 267, 105, -103, 31, 313, -51, 288, 32, 642, -25, 31, -595, 15, -37, -255, -808, -39, 167, -827, 319, 176, -146, -532, 3, -117, -142, 227, 338, 14, 629, 177, -69, 147, 172, 30, 266, 156, 75, -5, 144, 29, -141, 117, -40, 10, 89, 435, 55, 166, 220, -38, 247, 43, -841, -6, 40, -41, -68, 275, 50, 67, -34, 216, 167, -219, 133, -140, 369, 24, -81, 62, -9, -131, -99, 335, -69, 174, -55, 134, -262, 353, 866, 97, 271, 437, 57, -184, 252, 198, 62, 226, 61, -255, -141, 58, 32, 270, 537, 18, 23, 0, -273, -211, -96, 291, -166, 116, 298, -31, -109, -80, 398, 139, 318, -20, 544, 56, 37, 30, 176, 50, 82, -377, -47, 162, 34, -179, -12, 24, -205, 123, -197, -56, -37, -18, 233, 109, -24, -96, 451, -279, 12, -42, -178, -158, 499, -6, 275, 325, -140, -150, -104, 150, 98, 624, -5, 196, 24, 169, 196, 1157, 47, 418, 232, 236, -11, -84, -203, 54, -163, -15, 45, 199, 22, 211, -47, 5, -42, -35, -31, 233, -38, 536, 58, 31, -208, 257, 143, 214, -73, -237, -36, 191, 198, -384, 1111, -357, 544, -179, -34, 433, 247, 126, 221, -176, 171, 211, -69, 145, 92, 311, 216, 76, -9, 32, 116, -34, 91, 192, 205, -141, 176, 237, 152, 350, -100, 13, 15, 149, 498, 942, 808, -1, -403, 19, -50, 17, 167, 143, -556, -169, 251, 95, -125, -1015, -1170, 54, 178, 88, 218, -11, -275, -11, 420, -310, -36, -354, 74, -3, 202, 29, 1275, -333, 1742, 704, 4, 117, -72, 139, 269, -191, -147, -693, -11, -805, 130, -154, 226, 0, -763, 145, 223, -9, 65, -200, 51, 74, 81, -874, 247, -590, -1241, -21, 488, -217, -802, 219, -474, 760, -276, -258, -82, 164, 334, 81, -1046, -67, 493, -527, 255, 84, 341, 130, -79, 241, 34, 675, 103, -89, -49, 227, -80, 214, 50, 227, -328, 44, -45, 152, 535, 800, -793, 253, -702, -109, 20, 142, 119, 179, 143, 287, 78, 703, 348, 250, 187, 95, 33, 319, -110, 246, 108, 119, 149, 105, 39, -174, 360, -247, 318, 871, -122, 138, 118, 95, 161, -56, 409, 173, 179, -52, 176, 419, -25, 182, -20, -18, 173, 271, 202, -96, 21, -15, 161, 465, 189, 437, 112, -243, -136, -93, 287, 431, 157, -58, 63, 478, 16, 139, 595, 243, 150, 31, 449, -92, 194, 221, 266, 294, 213, 149, 691, 228, 197, 256, -157, 236, 283, 109, 284, 348, 93, 351, 120, -64, 357, 47, 170, 363, 242, 423, 73, 383, 153, 398, 213, 31, 315, 1163, -298, 321, 280, 145, -71, 2, 44, -100, 324, 709, 51, 36, -200, -85, 304, -63, -541, 859, 303, 198, 128, 204, 172, -41, 394, 379, -148, -53, -78, 177, -38, 133, -270, 173, 201, -28, 1002, 289, 159, -18, 47, -59, 271, 56, -214, 322, -28, 410, -108, 276, 145, 30, -92, -51, 341, 888, -135, 382, -21, -286, 609, -255, 193, 274, 219, -423, -259, 37, 248, 138, -296, 309, 9, 166, -62, -12, 309, 113, -82, 565, -309, 277, 606, -387, -103, 99, 114, 180, 496, 34, 276, 186, 159, -107, 127, 60, 372, 454, 363, 123, 37, 17, 9, -235, 296, 188, -6, -977, -14, -436, 38, 145, 435, 739, 398, -220, 329, 56, 131, 209, 33, 125, -199, -38, 195, 521, 5, 439, 244, 294, -232, 239, -638, 303, 139, -66, -9, -234, -115, 52, 580, -207, 520, -177, 50, 40, -38, 287, 88, 159, -84, 219, 495, 310, -105, -213, -250, 370, -215, 317, 629, -111, 1026, -70, 71, 448, 234, 201, 135, 8, -17, 55, -54, 445, -31, 276, 142, 22, 87, 227, -159, 524, -30, -1, 152, 177, 312, 123, -74, -176, 56, -171, -392, -30, 405, 100, 1235, -164, 139, 116, -399, -148, 156, 347, 287, 46, 185, 177, 567, 248, 388, 34, 53, -178, 142, 103, 397, 336, 251, 311, -1024, 314, 338, 490, 218, -82, -240, 435, -43, 106, -156, 667, 183, 80, 65, 537, 638, 997, 335, 271, 125, -8, 477, 108, 237, 104, 118, 457, -107, 32, 85, 716, 138, -2, -455, 69, 259, 101, 335, 709, 154, -219, 377, 33, -471, 161, -220, 114, 161, 258, 358, 625, 222, 316, 141, 347, 92, 235, 79, 6, 22, -7, -251, 124, 131, 122, 120, 145, 109, 654, 295, 311, 453, 509, 514, 128, 257, -58, 361, 597, 228, 78, -42, 103, -29, -52, 64, 286, 723, -134, 98, 54, -218, 1914, 296, 183, 122, 79, -280, 109, -276, 50, 879, 503, 39, 247, 361, -59, 41, 118, -41, 342, 164, 215, 166, 200, 53, -234, 523, 38, 428, 60, 433, -308, 468, 384, 507, -207, 83, -73, 631, 218, 49, 282, 563, 204, 357, 20, 51, 158, 395, -102, 214, 182, 357, 266, 46, 21, 38, -123, -285, -193, -29, -6, 53, 186, -215, 93, -107, 257, 357, 415, 35, 274, -134, 232, -185, 58, -77, 302, -87, 243, -185, -28, 210, 144, 87, 40, 871, -27, -17, -396, -875, 150, -48, 34, 163, 133, 248, -618, 231, -112, 285, 607, 166, -22, 9, -66, -88, 1579, 475, 252, 432, 1153, 137, 366, 459, -423, 503, 163, 396, -81, -123, 436, -117, -111, 29, -25, 499, -120, -56, -148, 383, -35, 316, -269, -163, -254, 475, -187, 264, 177, -999, -166, 102, 474, 104, -199, -109, 143, 551, 72, 95, 320, 63, -101, -1, 125, 494, 531, 490, -56, -136, -203, 230, -143, -421, -243, 551, 352, -536, -402, 10, 114, -380, 67, 172, 491, -152, 478, 177, 392, 33, -55, 1643, 469, 618, 525, 341, -7, -219, 123, -13, 268, 327, -534, 144, 283, 593, -394, -497, 180, -130, 274, 449, -292, -62, 196, -28, -35, 1146, 406, 435, 619, 381, -97, 137, 159, -40, 654, 248, 353, 330, -1070, 529, -153, 674, -108, 7, 297, 72, 753, -120, 356, 2, 263, -114, -161, -58, 387, -60, -433, 150, -464, -69, 220, -9, 31, -158, 247, 234, -117, -474, 206, 539, 277, 281, -55, 308, 867, 76, 294, 872, 238, -206, 80, -69, -406, 183, 427, 469, -736, 62, -182, 168, -364, 202, 204, 267, -118, 340, 177, 157, 233, -243, 282, 102, 185, 345, 395, 426, 92, 325, 32, 197, 441, 5, 94, 177, 1920, -1613, -84, 114, -142, 315, 1210, 546, -68, -192, 212, 134, 1343, 2, 435, 593, 521, -158, 60, 382, -130, 527, 432, 414, -680, -228, 222, -158, -158, -887, 81, 302, 79, 459, 114, -185, 160, 282, -577, -143, -43, 752, 68, 839, 440, 90, -351, 11, 661, 98, -157, 126, 125, 98, -361, 268, 492, 145, 827, 155, 525, 638, -107, -295, -151, 63, 36, 181, 48, -78, 347, -7, 372, 417, -68, -1484, 39, 10, 209, 376, 484, -154, 751, -111, 1484, 1028, 309, -658, 225, 262, 188, 701, -18, 209, 142, 414, 5, -95, -611, -87, 344, -98, 236, 213, -395, 394, -163, -94, 201, 480, 316, 342, 243, -38, -20, 147, -323, -55, 139, 123, -63, 393, -395, 129, 225, 597, 485, -351, 308, -11, -69, 331, 54, 404, 81, 483, -175, 277, -71, 381, 457, 419, -128, 373, -235, 188, 477, 371, 217, -21, 12, 749, 915, -55, -162, 151, 503, 35, 455, -219, -40, 360, -168, 116, -101, -386, 373, -65, 110, 339, 355, 240, -471, 277, 399, 183, 169, 67, 292, -8, 293, -120, 307, 72, -30, 7, 55, 223, 272, -71, -48, -10, 33, 145, 480, 132, -257, 144, 265, 286, 157, -202, 269, -177, -19, 286, -606, 170, 358, 110, -385, 26, -558, -81, 382, 129, 487, 727, 757, -2, 460, 690, -277, 898, 141, 726, -123, -260, 651, -381, 438, 497, -179, 53, -398, 242, -126, 525, 103, 496, -187, -100, -225, 485, -1519, 251, 139, -256, -673, 111, 665, 164, -429, -41, 346, 640, 62, -221, 348, 57, 837, -606, -148, 381, 147, 337, 440, -400, -184, -28, -407, -155, -98, 1170, 136, -535, -203, 25, -422, -306, -163, -229, 480, -551, 377, 147, 309, 203, -118, 454, -2, 980, 423, -73, 285, -84, -216, -32, 138, 190, -91, 359, 36, 217, -60, 54, 150, -9, 187, 324, 134, 118, 58, -37, -9, 318, 340, 138, 155, 505, -86, 414, 422, -127, 417, 717, 388, -179, 105, 328, 71, 130, 16, 169, 238, -1, 161, -39, 283, 64, 259, 101, -14, -104, 246, 203, 185, 245, -60, 159, 107, 99, 53, 23, 417, 132, -154, 55, 150, 356, 220, 145, 101, 330, 186, 267, 257, 439, 235, -81, 180, 14, 183, 126, 308, 469, -107, 162, 97, -77, -87, 171, 317, 493, 103, 356, 280, 232, 155, -53, 396, 276, 274, 325, 160, 709, 465, 190, -62, 330, 170, 41, 224, 178, -149, 249, 170, 535, -82, -46, 94, -18, -180, 99, -52, -111, -204, 159, 111, -43, 120, -685, 590, 461, -328, 201, 390, 395, 120, -142, 792, -53, -84, 150, 169, 34, 253, 93, -42, 71, 58, 104, 80, -117, 335, -24, 277, -233, -36, 15, 151, -105, -111, -24, -123, 229, 70, 137, 351, 88, 201, 364, 312, 1338, -44, -671, 605, -411, 232, 112, 303, 315, 88, 312, 615, 298, 245, 66, 21, -38, -70, 52, -26, 75, -28, -94, 192, 106, 176, -207, 105, 816, 365, 770, 325, -649, 591, 453, 220, 125, -75, -215, 254, 77, 230, 146, 1220, 1075, 90, 184, -75, -222, 724, 108, 639, 124, 499, 407, 175, 167, 41, 249, -93, 85, 160, 172, 163, 95, 144, 357, 560, -53, 365, 348, 171, 275, 332, 616, -58, 70, 28, 357, 284, 160, 30, 54, -16, 336, -96, 225, 192, 255, -17, 330, -181, 331, 246, -320, -113, 123, 266, 77, 170, 700, 304, 320, 96, 225, -8, 1, 140, 176, 45, 180, 369, 99, -239, 415, 344, 901, 607, 171, 363, 138, 359, 21, 339, 129, 61, -19, 320, 60, 59, 135, 113, 47, -364, 292, 549, -150, 537, -702, -289, -89, -746, -457, -144, 692, 555, -832, 503, 35, 84, 308, 721, 1104, 358, 599, 68, -246, -576, 561, -387, -194, -779, -280, 497, -201, -693, -238, 997, 817, -166, 529, -29, -1209, 243, -613, 461, -268, 504, -666, 442, -328, 1033, 475, 986, -543, -23, -230, 267, 228, 158, -243, 166, 418, 551, 440, -710, -161, -55, -311, -32, 7, 132, 162, 372, 50, -284, -217, -210, 403, 53, -140, 506, 112, -28, -73, 486, 473, 656, 534, -38, 433, -61, 518, -804, 491, -238, -222, -183, -364, 3, -507, -517, -250, -181, 1256, 930, 176, 44, 99, 1350, 704, 338, 645, 284, 142, 411, 153, 469, 425, -444, 14, 135, -192, 430, 293, 761, 175, 192, 546, 176, 665, 208, 601, -113, 52, -311, 547, -48, -59, 266, 3, 452, 29, 427, 588, 415, -360, 1289, 544, 189, 174, 247, -8, 119, 77, 220, 409, 797, 252, 201, 564, 390, 527, -340, 532, 460, 673, 13, 364, 1598, 88, 423, 80, -144, 247, 614, 45, 210, 368, 771, 613, 47, 768, 153, 343, -373, 2, 281, -28, 433, 363, 238, 957, -9, 288, 320, 256, 550, 143, 232, 445, 619, 116, -85, 1626, 938, -3, 134, 162, -5, 299, 137, -34, 161, -13, -488, 338, 421, 204, 323, 170, -173, 248, -30, 54, 280, 625, 98, 17, 45, -514, 268, -16, 200, 112, 10, 98, 90, -124, 232, 94, 351, 291, -33, -26, 399, -157, 216, 132, 207, -143, 309, 244, 290, -123, 34, -27, 384, -46, 320, 265, 747, -142, -284, -182, 273, 264, 141, 40, 95, 92, -266, 549, 147, 507, 290, -234, 55, 25, -44, 402, 638, 60, 828, 97, 490, 181, 278, 224, 121, 51, 105, 300, 167, 242, -37, 267, 55, -307, 107, 210, 435, 488, 237, 102, -155, -463, -86, 825, 205, 394, 118, 143, 31, 193, 391, 205, 112, -7, 303, 896, 96, 103, 175, 427, -57, 343, 693, 56, -116, 304, 155, -268, 183, 305, -473, 383, -317, 581, -418, 289, 382, -42, 357, -78, -109, 276, 107, 258, 565, 574, -136, 427, -113, 360, 370, 452, -116, 270, 278, 318, 384, 220, 223, -156, 41, 668, 204, 127, 85, 385, 196, -201, 170, 99, 73, 629, 227, -111, -126, 75, 801, 528, -58, 807, 114, 154, -19, 14, 413, 63, 52, 429, 401, 857, 438, -190, 923, -156, 159, -230, 181, 377, -67, -199, -468, -127, 397, -588, 582, 57, 202, 500, 294, 167, 133, 145, 184, -380, -457, -109, 40, 237, 518, -210, -27, -27, 83, 264, 414, 289, -61, 496, 127, -357, -51, 304, 308, 234, -13, 752, 367, -102, -40, -251, -59, 371, 107, -20, 249, -61, -256, 402, 339, -87, -30, 87, -71, 450, -333, 93, 224, -36, -236, 92, -84, 315, -267, 426, 472, -177, -88, -94, 291, 207, 165, 49, 185, 336, 4, -186, 586, 34, -23, -67, 6, -403, -264, 673, -224, 37, -129, 397, -86, 5, -57, 108, 522, -236, 349, 251, 1005, -129, 98, -25, 188, 218, 486, 546, 236, 205, -148, 465, 78, 10, -56, 12, 542, 63, 115, 300, 567, 706, 287, -185, 427, 482, 199, 47, 191, -198, 120, 107, -2, 87, 797, 329, -328, 339, -107, 391, -175, 332, 136, 158, 611, -97, -38, 238, 266, 168, 103, 389, 233, 146, 194, 131, 426, 135, -8, 414, 115, 125, 334, 650, 106, -286, 189, 369, 803, 82, 157, 478, 346, -84, 500, 14, 499, 480, -53, 269, -103, 35, 2179, 1653, -157, 1160, 383, 261, -454, 187, 258, 108, 229, 179, 41, 1701, 296, -17, 512, -136, 11, 42, 273, 180, -14, 81, -240, -78, 1260, -277, 348, 777, -19, 653, 243, 137, 185, -129, 387, 35, -69, -209, -85, 183, 403, 110, 78, -100, -1, 147, 409, -26, 74, 382, -44, 298, -78, -279, 16, 212, -144, 102, 1132, -53, -231, -76, -481, 161, 76, -74, 270, -62, 0, 31, 269, 131, -32, -300, 105, 167, 208, 225, 258, 94, 280, 385, 726, 388, -58, 175, 447, 222, -534, -10, 257, 8, 267, -132, 45, 379, 381, 135, 165, -2, -105, -18, -72, 136, -116, 133, -189, 68, -135, -206, 26, -79, -11, 118, 133, -41, 212, 213, 159, 19, -59, -56, 116, 231, 111, 163, 296, -94, -131, 86, 91, 293, -74, 175, 1626, 228, -308, 72, 528, 459, 683, -7, 22, 84, 11, -97, 454, 1519, 62, 296, 128, 296, 580, 613, 18, 55, -1046, 571, -307, 154, 79, 502, -58, 413, 91, -34, 300, 1179, 330, 450, 589, -50, 161, -279, 440, 9, 164, 390, -44, 102, 67, 388, 473, 132, -206, 559, -274, 228, 187, 296, 452, -1, 517, -24, 79, 136, 139, -36, 123, 164, 933, 167, 39, 474, 29, -27, -98, -23, 105, 9, -202, 113, -21, 556, 106, 145, 1015, 142, 138, -52, 490, 78, 262, 148, -160, -77, 370, 134, 296, 483, 144, -35, -40, 37, 186, -541, -37, 260, -180, -166, -420, -96, 151, -128, 99, 117, -69, -109, 218, 224, -428, -74, -26, -153, -116, 373, 108, 908, -117, 937, 1254, -5, 41, -255, 152, -169, -140, -218, 874, 18, 121, 130, -53, 90, -12, 104, 15, 183, -42, 36, 16, -176, 16, 131, 188, 310, -695, -98, 8, 699, 88, -432, 229, -99, 219, 232, 103, -35, 140, 101, 210, -774, -65, 487, -150, 71, -413, 545, 26, 103, 272, 44, 53, -99, -253, 101, 56, -264, 133, -32, 152, -395, -25, -83, 211, 451, 209, -64, 348, 109, -14, 188, -54, -13, 64, 21, 405, 247, 49, 317, 80, 954, 504, -59, 184, 40, 220, 52, 185, -22, 250, 548, 69, 300, 532, 256, -267, 180, -347, 322, -28, -146, 109, -3, 567, -185, 58, 270, 204, -220, 163, 507, -119, -128, 52, 92, 507, 168, 2, 428, 70, 110, 50, 493, 26, 52, -33, 281, 422, 49, -227, 193, 605, -106, 161, 161, 209, 203, 156, 219, 36, -16, 388, 442, 18, 977, 334, 10, -337, 180, 175, 259, 139, 486, 392, 615, 113, -46, 968, 87, 106, -375, 545, 905, 176, -321, -523, -108, 2229, -338, -450, 410, 188, -152, -72, 456, 159, -24, 48, 35, 37, -543, -320, 71, 1151, -149, 163, 216, -86, -253, 325, 261, -141, 134, 21, 68, -61, 207, 203, 624, -26, 504, 261, 185, 257, -299, -101, 145, -351, 313, 130, -240, -356, 175, -68, -71, 161, 124, 262, -587, -125, -226, 23, -257, 4, 346, -34, 191, -664, -81, -155, 319, 650, -417, 656, -43, 216, 340, -141, 75, 267, 420, -135, -151, -9, -42, -129, 61, 149, 406, -213, -106, 266, -14, 54, -543, -128, -78, 380, -847, 241, 112, 354, 27, -308, -92, 233, 463, 513, 66, 409, -235, 370, 267, 54, 101, -9, 57, 318, -125, 321, 10, 196, 293, 612, 132, 553, 242, 186, 363, 347, -42, -187, 416, -26, 306, -42, 250, -6, 289, -119, 296, -182, -105, 171, 69, 465, 662, 25, 303, 225, 373, -61, 554, -9, 375, -48, 249, 519, 229, 40, 420, -79, 130, 230, 445, -60, 584, -40, 599, 366, 134, 96, 195, 360, -77, 270, 162, 201, 250, 73, -97, 28, -161, 396, 361, -246, 472, 29, 4, -127, 224, 216, -806, 160, 91, 168, 391, 195, -108, 73, -85, 27, -69, 292, 341, 310, -78, 140, 198, 121, 43, 295, 411, 78, -230, 125, 175, 172, 19, 48, 205, -45, -94, 147, -173, -550, -178, 38, 21, 150, 51, 382, 355, 98, -97, -169, -323, -256, 594, 204, -535, -32, 493, 58, 62, -35, 131, -170, 239, -13, -430, 433, 917, -349, 38, 209, -135, 423, -309, 90, 5, -21, 104, -188, 168, 46, -62, -389, 216, 58, 84, 23, -32, -8, -39, 192, 17, 319, 376, -242, -180, 1010, 217, 651, -74, 190, 333, -284, 427, 228, 78, 224, -166, 544, 186, 224, 179, -349, -148, 180, 135, -110, -113, -257, -233, 88, -274, 405, 118, 557, 105, 33, -130, -44, 316, -55, 35, -33, 231, 573, -81, 106, 232, -92, 238, 684, 166, 89, 310, 213, 165, 71, -200, 287, 155, -579, -202, 293, -100, -43, 317, 32, -129, -150, 657, 183, 246, 291, -25, -284, 543, 250, -199, 182, 193, -840, 32, -313, 880, 139, 289, -116, 307, 118, 128, 374, 536, 106, -73, 224, 197, -178, -5, -71, 218, 248, -30, 222, -530, 257, 211, -209, 54, -114, -2036, 596, 336, 177, 621, 118, 640, -946, 160, 209, 152, 290, 779, 124, 489, 359, -48, 291, -61, -129, 351, 171, 575, 180, 237, 149, 54, -461, -224, 941, 296, -99, 186, 174, 308, 811, -30, 815, 91, -136, 61, 142, 370, 777, -216, 26, -111, 62, -29, -1292, 172, 241, 976, 235, 715, 113, 56, 73, 168, 98, 72, -137, -393, 150, -12, 223, 224, 19, -209, 298, 172, -59, 393, 32, 321, -160, 44, 40, 171, 47, -58, -55, -94, -125, 636, 529, 58, 54, -89, 211, 226, 120, -111, 65, -133, -327, -136, 183, 330, 233, 480, 108, -21, 36, 130, 131, -579, -365, 93, -218, 8, -45, -343, 2, 70, -109, 98, 114, -27, 87, 308, 133, -114, -3, 429, 397, 52, 122, 216, -58, -138, 61, 97, 65, -23, -183, 90, 340, 114, 233, 220, 360, 586, 50, -148, 305, 245, 174, 421, 308, -124, -253, 266, -95, -155, 133, 352, -242, 372, -208, 397, -171, -247, 170, 145, 401, -18, -139, 189, 186, 142, 38, 344, 47, 374, 52, 172, 277, 67, 84, 189, -162, 356, 257, 296, 97, -151, 135, 699, 487, 19, -156, 239, 598, -275, 406, 129, 126, 245, -247, 102, -13, 146, 779, 377, -409, 685, 223, 478, -498, 68, 96, 167, 111, 366, 251, 591, 416, 47, 1190, -123, 72, -462, 385, 528, 207, 157, -66, -10, 155, -142, 520, 329, 76, 227, 259, 649, 454, 78, 678, 463, -591, 443, 293, 342, 257, 117, -120, 147, -182, 190, 519, 347, 653, 687, 680, 1171, 827, 798, -378, 266, 1157, -88, -123, 11, 633, 149, 99, 1174, 37, 235, -205, 345, 315, 396, -99, 581, 17, 132, -75, 405, 87, 180, 122, 103, -65, 1239, 21, -426, 297, 66, 295, 154, 338, 896, 207, 186, 47, -358, 83, 358, 460, 561, 313, 64, 80, 421, 81, -1181, 336, -55, 56, 128, 85, -408, 283, -292, 203, 249, 329, 250, 470, 196, 250, 421, 46, 818, 530, 301, 327, 287, 29, 67, 100, 378, -206, -339, 297, -314, 124, -77, 581, 498, 11, 394, 60, -561, -82, 212, 716, 624, 267, 914, -77, 25, -574, 120, 722, 322, -151, 968, 291, -612, -117, 220, 976, -432, 515, 543, 230, 216, -284, 1536, -205, 29, -111, 281, 191, 323, 4, 294, 135, 1884, -958, 304, 904, 424, 350, 0, 27, 331, 213, -279, 168, 62, 130, -168, -51, 525, 183, 278, 7, -117, 273, -340, 910, 1638, -449, 794, 553, 358, -1820, 332, 407, 824, 670, 525, 582, 584, 263, -54, 182, 88, -179, 661, -47, 427, -235, -133, -248, -332, -167, -20, 212, 33, -273, 53, 75, 210, 55, 48, 158, -2, -50, 320, -159, 5, 464, 30, -185, 54, 58, -531, 232, 248, 183, 387, 638, -161, 424, 539, -500, 603, 173, 460, -138, -219, 418, -551, 523, 4, -29, 674, 108, 33, -115, 409, -376, 567, -256, -165, -282, 374, -71, 94, 178, -508, -20, 162, 81, -54, -529, -510, 66, 379, 428, 173, 196, 36, 162, -3, 17, 457, 543, 401, 5, 61, -84, 500, -82, -3, 338, 530, 381, -245, 99, 41, 328, -263, 2, 188, 426, -594, 422, 160, -231, 48, -253, 338, 575, 639, 584, -21, 270, -214, 151, -60, 382, 132, -60, 1164, 197, -284, 208, -15, 153, 36, 514, 296, -594, 44, -192, 417, 75, 139, 122, 178, -64, 602, -163, -78, 123, 11, 354, 292, 137, 756, -202, 156, 40, 446, 261, -23, 104, 271, -53, 24, -48, 533, 234, -121, 45, -43, 244, 172, 124, 50, 54, 144, 313, 411, 267, 40, 605, 199, -103, 101, 293, 275, 226, 68, 52, 3, -463, 394, 164, 274, -79, 140, 178, 10, -187, 142, 177, -68, 72, -330, -1836, 187, 5, -142, -123, 178, 24, -266, 10, 160, -220, 137, 461, 236, 127, 671, 207, 431, 75, -34, 453, -401, -53, 49, -258, 110, 64, 554, -176, -193, 85, -62, -168, 1702, 195, 639, 72, 262, 350, 276, 86, -103, -175, -507, -192, 140, 148, 71, -1, 78, 302, 278, 51, 91, 106, 53, 119, 124, 480, -264, 240, -366, 342, -199, 495, 166, 372, -568, 473, 113, 366, 329, 217, 140, -241, 18, 129, 79, -232, 35, -184, 83, 65, -62, 260, 250, 268, 215, 62, -220, -380, 92, 48, -53, 95, 353, 131, -39, 396, 436, 562, 664, 112, 474, 101, 437, -450, 125, -305, -134, -6, -96, 132, -343, -96, 53, 66, -243, -166, 52, -23, 229, 14, 167, -76, -20, 61, 93, 197, 69, -285, -482, -357, 57, -68, 69, 145, -63, -24, 310, 85, -174, -32, -64, 95, -154, 121, 116, 774, -144, 1132, 399, 71, 68, -283, -73, 1, -75, -221, 655, -277, -501, -53, -52, 8, 61, -463, 232, -13, -156, -4, 158, -42, 112, -32, 404, 298, -1871, -80, 52, 377, 400, -721, 240, -53, 143, 55, 30, 56, 282, 3, 57, -409, 174, 209, -608, 157, 65, 645, 176, -2, 136, 12, -416, -274, -346, 51, 57, -1343, -42, -4, 281, -374, -76, -166, -217, 669, 159, 37, 633, 132, -111, 104, 8, 274, 289, 44, -6, 473, 1012, 226, -473, -213, -54, 134, 134, 141, 326, 342, -4, 250, 236, 172, 319, -101, -74, 381, 374, -11, 673, -108, 545, 156, 235, -64, -55, 422, -89, -170, 72, 622, 30, 228, -287, 291, 181, 85, 126, 114, 13, 32, 128, -49, -18, 4, 214, 760, 571, -34, 314, 231, 224, 257, 14, 677, -1, 360, 58, -34, 345, 180, 152, 146, -330, -55, 169, -553, 246, -337, 191, 376, 14, 322, 231, -83, 477, -170, 50, 13, -96, 222, 62, 102, 96, 62, 204, 146, 186, 597, 125, 1198, 212, -165, 133, 0, 66, 363, 17, 77, 20, 67, 385, -7, 26, -243, -49, 346, 88, 167, 45, 161, -332, 33, 22, -86, 266, -62, 11, 230, 122, 44, 133, 152, 62, 270, -54, 128, 45, 58, 194, 65, 80, 200, 135, 13, 178, -20, 178, 264, 225, 31, 400, 104, 178, 129, 455, 205, -47, -146, 38, 229, 318, 108, 95, 257, 661, 87, 48, 271, 31, -25, 81, -12, -156, 109, 258, 51, 126, 598, 359, -100, 193, 242, 376, 378, 200, 320, 177, 152, 47, 64, 84, 191, -3, 37, 122, 113, 52, 121, 179, 216, 218, -77, -165, 310, -285, 84, -53, 431, -2, -132, 167, 239, -27, 1178, -439, -318, 36, 320, 311, 392, 319, -116, -145, -57, -326, -95, 52, 805, 1962, 333, -294, 30, -462, 542, 353, -141, 942, 514, 203, 245, -1, 488, 79, 533, -95, 474, -14, 332, 333, 331, -91, 393, 23, 211, 376, 445, 950, -730, -47, 614, 3109, 80, 424, 199, 495, 66, 329, 111, 218, 478, -334, 199, 42, 4, 711, 997, 45, 873, 594, 214, -313, 172, 389, 533, 201, 399, 290, 681, 297, -42, 673, 10, -329, -68, -248, 885, 680, -46, -390, -148, -31, 100, 531, 271, -338, 79, 18, -136, 74, 317, -174, 168, 112, 906, -44, 267, 98, -321, -296, 153, -77, -114, 167, 628, 74, -33, 145, -278, 199, 304, -17, 279, 40, 285, 681, -358, 412, -29, 517, -117, -54, 302, 236, 89, -121, 802, -205, 511, -366, -124, -346, 465, 278, 100, 70, -740, 369, 235, 538, -172, -47, -111, 60, -177, 953, -79, 210, 97, 188, 2016, 52, -32, 344, 584, 495, -131, -129, 884, -69, 178, 236, 284, 328, -384, 164, 357, 277, -457, 78, -104, 551, -71, 271, 12, -3, 70, -206, 254, 554, 232, 229, 93, 1011, 561, 476, -83, -112, -29, 255, 218, -95, -170, 992, 271, 844, 276, -54, -43, 273, 2, 886, -58, 386, 503, 593, -195, -93, -24, -120, 266, 337, 95, 275, -56, 313, 649, 587, 391, 14, 33, 31, 11, 271, 2897, -103, 64, 153, 125, 201, 608, -238, 414, 134, 113, -67, 285, 218, 87, -58, 34, 14, 0, 341, -148, 1408, 17, 78, -25, -103, 3660, 1286, 81, -62, 456, 22, 81, 246, 206, 426, 291, 226, 183, 321, 643, 154, 696, 357, -59, -49, -21, 121, 687, 113, 314, -116, 836, -29, -84, 1059, 55, 333, 290, 234, 489, -14, -104, 376, -105, -188, 71, 70, 110, -45, 347, 882, 73, 18, 156, 13, 691, -12, 1266, 295, 124, 1889, -15, 27, -74, 279, -105, 64, 1297, 152, 391, -44, 466, 103, 398, 355, 43, 357, -93, 2, 230, 15, 65, 61, -273, 48, -256, 407, 156, 499, -816, 152, -1, 340, 293, 829, -33, 65, 194, 15, 85, 65, 86, -173, 177, 291, 99, 767, 562, 195, 107, 38, -31, 31, -55, -4, -117, 34, 323, 280, 213, 509, 229, 999, 679, 47, 82, 45, 243, -197, -45, -57, -449, 13, -75, -21, 55, 204, 1307, 18, -228, 212, -178, -89, 54, 67, -17, -73, 306, 256, -29, 158, 124, 601, 860, 301, -53, 172, 74, 74, 205, 233, -269, -31, 341, -81, 286, 49, 440, 141, 259, -285, 442, -63, -172, 144, 289, 561, 32, 267, 884, 281, 238, 456, 241, 56, 187, 129, 116, 317, 83, 43, 646, -39, 130, 182, 335, 53, 241, 21, 280, 268, 87, -12, 94, 193, -29, 214, 98, 163, 254, -27, 888, 50, 87, 1223, 341, -68, 1287, -19, 219, -163, 225, 204, 267, 164, 522, 392, 445, 188, 15, 1004, -133, 101, -12, 342, 1062, 1184, 412, 21, -105, 2601, -472, 587, 410, -654, 78, 128, -60, 181, 75, 101, 179, -125, 254, -12, 74, 66, 57, -65, 102, 2, -140, 754, 739, 121, -59, 306, -59, 540, 272, -121, 241, 61, 202, 196, -95, 205, -115, 442, 224, 379, 210, 548, 125, -85, 365, -63, 291, -283, -50, -444, 331, 156, 31, -54, -343, 126, 505, -1074, -372, -156, 337, 76, -80, 241, 91, 208, 137, 178, 291, 303, 155, 426, 314, 335, -96, -72, 292, -113, 105, 259, 89, 292, -34, 21, -173, 427, -139, 150, -108, 701, -142, 235, 271, -117, 115, -219, 986, 412, 240, 325, -12, 792, 372, 426, -176, 1548, 1830, -352, 245, 316, -28, -581, -527, -8, 130, 464, -928, -414, 17, -715, 134, 89, -3731, 233, 228, 242, -299, 26, -9, -942, 155, -332, 405, 121, 813, -293, -178, 109, -1766, 95, 121, 35, -147, 1121, 300, 404, 295, 79, -144, 285, -148, 414, 249, 474, -6, 51, 144, 843, 270, 40, 137, 236, 1294, 92, -366, 212, -144, 223, 31, -552, 7, 272, 198, 537, 250, 220, 97, 288, 222, 63, -118, -28, -642, -9, -886, 147, 80, 387, -81, -159, 651, 71, 474, 399, 164, 164, 383, -175, 150, -484, -492, 1353, -649, -202, 392, 246, 909, 448, 871, 1286, 2198, 135, -630, 37, 610, 600, 361, 74, 36, 69, 202, -208, 1665, 190, -16, 519, 118, 11, 352, 371, -404, 217, -3077, 3306, 145, -82, 109, -85, 371, 37, 704, 341, 264, 1051, 559, 2215, 255, -34, 241, 105, 2705, -32, 236, -144, 21, 182, 432, 371, 381, -303, -212, 560, 1195, 542, 133, 736, 3069, -127, 1297, -263, 749, 447, 78, 130, 232, 181, 811, 307, 17, 491, 337, 170, 53, 95, 330, 109, 0, -28, 224, 750, -279, 49, 514, 164, 1242, 130, 653, 304, 178, 75, 168, -102, 1157, 43, 454, 463, 88, 168, 183, 344, 179, -220, -121, 132, 293, 62, -72, 76, 191, 20, 129, -53, 485, -65, -87, 678, -122, -46, 210, 47, 250, 144, 163, 29, -39, 47, 161, -16, 146, 296, 257, 249, 292, -103, 521, 732, 39, 114, 166, 378, -20, -6, 99, 165, 69, 142, -43, -182, 383, 116, 575, 267, -48, 268, 104, 637, 294, -599, 42, -44, 247, 369, 272, -92, 163, 797, 158, 27, 304, 569, 14, 473, 145, 289, 143, 219, 405, 65, 440, 181, 395, -108, 242, -258, 319, 51, 689, -162, 69, 7, 420, 308, 71, 170, 527, 336, 350, 49, 893, 563, 130, 150, -48, 482, -127, -141, -144, 420, 3, 183, -112, 67, -108, 433, 137, 631, 176, -289, 217, 66, 146, -55, 97, 140, 260, -32, 41, -121, 71, -139, 67, 35, -7, 89, -176, -527, 868, 3, 101, 594, 123, 17, 52, 63, 171, 149, 405, 85, 93, 263, 347, 822, 554, 360, 631, 801, 20, 20, -31, 239, -64, -771, -36, 159, 275, 289, -31, 284, 451, 133, 320, 330, 93, -132, 151, -101, 78, -988, -60, 171, 518, 129, 176, 76, 298, -28, 402, 54, 477, 172, -219, 145, 1, 648, 1673, 1608, 202, 308, 505, 201, 268, -100, -127, -26, 447, -45, 6, -752, 65, 210, 319, 130, -30, -19, 704, 285, 283, 256, 6, 423, -234, -222, -183, -81, 823, 36, -143, 84, 473, -34, -425, 162, 215, -124, 134, -720, 148, 219, 127, -263, 774, -314, 122, 190, 122, 62, -162, 385, 810, 272, -289, 88, 174, 1123, 137, 281, 328, 224, -121, 74, 744, 47, 200, -180, 184, 422, 288, -166, 173, 107, 150, 35, 128, 43, -239, -101, -46, 112, -8, 116, 121, 680, 65, 662, 44, 88, -334, 306, -106, 69, 284, -287, -348, -255, 129, -219, 619, 198, -131, 96, 238, 65, 382, 212, 861, 108, 108, 65, 3, 708, 230, 242, -62, 183, 106, 329, 454, -326, -81, 607, 145, 74, 392, 435, -741, 57, -420, 610, 87, -60, 70, -308, 457, -136, 248, 444, 291, 103, 679, 497, 117, 181, 40, 141, 736, 116, 118, 411, 93, -5, 89, 411, 146, -447, -163, 785, 661, 246, -79, 58, 2135, -444, 888, 299, 45, 174, 134, 42, 50, 113, 1166, 267, 23, 1024, 281, 148, -317, -61, 96, 236, -73, 338, 198, 354, 82, 25, 413, 159, 332, -21, 343, 1084, 375, -116, -257, 137, 3, 157, 257, 1293, 61, 449, 460, -90, 478, 482, -230, -5, 177, 340, 308, 1350, -5, 46, -162, -369, 153, 150, 1526, 94, 469, -178, 253, 140, 460, 243, -162, -551, 394, -118, -85, -123, 488, 111, 269, 143, 352, 394, 87, 498, 841, 25, 47, 415, 123, 451, 29, 149, 466, -18, 137, 71, 510, -25, -222, -221, 301, 151, 496, -81, 156, 260, -126, 177, -172, 332, 173, -147, -105, 71, 95, 334, 821, -1, 301, -4, 211, -16, 174, 158, -93, -24, 605, 73, 291, 124, 131, 116, 83, 135, -130, 544, 325, 377, 452, 157, -109, 250, 44, 248, 442, 180, -1026, -1203, -37, 111, 122, -166, 872, 1104, 258, 104, 341, -2018, 346, -236, 1548, 78, 70, 9, 62, -95, 107, 336, -234, -5, 493, 111, 403, -172, 93, 102, 133, 474, 155, 904, 18, 287, 135, 55, -291, 88, -56, 165, 45, 131, 55, 213, -1, 228, -624, 83, 148, 124, -318, -72, -144, 88, -216, -505, -166, 20, 132, 474, 43, 1198, 486, 39, -159, 133, 138, 101, 161, -75, 87, 145, 63, 369, 26, 1695, 94, 1728, 618, -128, 148, 128, 187, -14, 137, 57, -48, -54, 73, 82, 261, -29, 126, 63, -1602, 955, 151, -775, 263, 203, 44, 160, 167, 496, 89, 206, 120, 4, 586, 66, -8, -21, 254, 94, 398, 389, -22, -26, 57, 116, -89, 179, 168, -231, 357, -128, 104, -157, 560, 408, -120, 565, -70, -31, 414, 29, 400, 60, 550, -123, 403, 65, 332, 512, 144, -17, 475, 8, 264, 403, 408, 83, 56, -28, 513, 370, 83, 160, 107, 1060, -503, 73, -263, 197, 470, -83, 136, 68, -10, 1641, 580, 61, 996, 215, 217, -237, 118, 403, 78, 105, 663, 329, 980, 306, -10, 590, -31, 165, -335, 101, 864, 54, -5, -276, -253, 237, -150, 142, 306, -107, 128, 268, -48, 486, 175, 309, -510, 163, -1013, -45, 248, 143, 518, 105, -224, 234, 59, 206, 391, 1105, 882, 1257, 187, 98, 602, -209, 177, 138, 204, -88, -88, -235, -5, 20, -47, 319, -63, -23, 883, 166, 117, 692, 96, 62, 176, 640, -329, 299, 824, 624, -112, 189, 164, 33, 154, -309, 130, -457, 431, -164, 157, 366, 161, 370, -199, 251, 776, -231, 481, -39, 110, 440, -364, 162, 106, 883, 279, 174, 379, -125, 4, 151, -142, 188, -42, 13, -347, 726, 129, 341, 205, -24, 369, 124, 715, 160, 447, 102, 429, -20, -198, 2079, 781, 137, 516, -30, 171, 6, -172, 357, 68, 488, 536, -60, 265, -171, 242, 285, -781, -211, 477, 76, 186, -114, 282, 57, 265, 163, 106, 2, -378, -70, -3, 63, 157, 616, 337, 169, 316, 841, 202, -52, 299, 81, -308, 45, -108, 636, 306, 253, 407, -42, 233, 460, 422, 31, 21, 602, 367, -221, -71, 355, 109, 396, -369, -33, 129, 332, 83, 275, 149, 73, 270, 42, 70, 153, 199, 62, -588, -97, 94, -205, 250, 130, 93, -389, -176, 70, 493, 523, 225, 744, 541, 433, 719, 26, 179, 1493, 771, -71, 108, 161, 303, 98, 22, 92, 171, 114, -297, -38, -52, 183, 471, 217, -103, 556, 10, 59, -2, -2124, 160, 68, 156, -478, 597, 83, -154, 84, 190, 71, -41, 382, 120, 142, 55, 208, 114, 46, 110, -121, -86, 31, 244, 53, 161, 57, 430, 120, 5, 153, -98, 61, 18, 232, 72, 405, 149, 116, 81, -21, -155, 539, 154, -4, -233, -52, 276, 39, 12, 199, 149, 16, 452, 142, 218, 362, -146, -141, 207, -129, 86, 105, 187, 25, 30, 113, 29, 230, 784, 213, -61, 100, 122, 205, 75, 148, -574, 477, 652, 640, 303, 1300, 291, 327, 595, 30, 134, 113, 228, 122, -279, -843, 136, 99, 286, -43, 8, -53, 974, 283, 677, 45, 270, 359, -93, 169, 147, 114, -36, -9, 0, 15, 534, 11, -450, 117, 151, 69, 187, -139, 1182, 669, 191, -153, 975, 206, 77, 132, 0, 158, -96, 351, 106, 281, -140, 140, 248, 377, 114, 1198, 720, -26, 14, 380, 346, 160, -400, 216, -659, -744, 569, 131, 169, 156, 487, -38, 131, 34, -114, 176, -64, 30, -14, 61, 126, 944, 116, 294, 217, 152, 36, 414, -115, 241, 417, -63, 149, 99, 744, 317, 449, -38, -136, -75, 147, 105, 202, 238, 339, 372, 90, -19, 438, -411, 145, 293, 259, -246, 85, -165, -185, 71, 160, 86, 416, 582, -130, 378, 782, -51, 975, 153, 921, -141, -270, 2485, -422, 448, 10, 79, 360, -37, 97, -417, 423, -194, 415, -233, -399, -183, 349, 12, 202, 224, -487, -8, 157, 462, -75, -182, 32, 191, 258, 150, 202, 440, 76, 64, -13, 67, 441, 692, 261, 370, 100, -218, 291, -417, -1, 344, 569, 569, -149, -23, 118, 63, 103, -111, 107, 433, -697, 413, 243, 332, 60, -189, 442, 589, 502, 549, 7, -181, 122, -32, -146, -224, 231, 292, 468, 730, 28, 209, 182, 632, 397, 28, 182, -75, -60, -232, 239, 553, 245, -97, 542, -4, 310, 96, 174, 145, 302, -458, 62, -538, 449, 14, 62, 492, 327, 172, 456, 203, 946, 38, 110, 119, 96, 149, 206, 67, -55, 158, 26, 77, 327, 145, 533, 176, -651, -494, 562, 520, 358, -53, 106, 2007, -84, 703, 263, 646, 161, 6, -64, 192, 197, 1097, 691, 336, 722, 153, 240, 31, -33, 215, 303, 239, 330, 62, 723, 131, 161, 492, 104, 68, -27, 110, 303, 1053, 548, 85, -364, -684, -372, 148, 136, 273, 18, 251, -261, 463, 649, -121, 233, 273, 1290, 139, 330, 110, 160, 472, 154, 198, 131, -152, 116, 279, -1264, 248, 686, 239, 103, 28, 48, 160, 63, 664, 116, 270, 196, -221, -1140, 337, 281, 17, 504, -6, -446, 337, 12, 300, 6, 492, -69, 282, 50, 231, 140, 350, -176, -424, 203, 76, -7, 404, 41, 1074, 219, -121, 910, -533, 264, 191, -9, 16, -279, -372, 353, 325, 285, 291, 56, 476, -1175, 73, 75, 125, 384, 1067, 325, 318, 321, -312, 353, -14, -73, -151, 154, 483, 359, 300, -64, 203, -128, 117, 261, 309, 255, -401, -186, 128, -11, 115, -147, 547, 543, 275, 79, -24, -135, 584, 109, 1005, 186, 270, -100, -34, 16, -8, 360, -95, 314, 756, 101, -92, 253, 139, -24, 380, 444, 110, 808, 570, 201, 289, -6, 85, 255, -12, 184, -75, 270, 125, 277, -20, 365, -162, 168, 118, 424, 314, 80, -79, 77, 209, -178, 337, 121, 92, -64, 181, 529, 1054, 192, 37, 28, -457, -14, 83, 116, 13, 108, 320, 337, 232, 461, 96, 833, 567, 53, 137, 120, 222, 23, 44, -2, 27, -385, 142, 161, 309, -60, 204, 75, -418, 29, 613, -65, 626, -165, 43, -399, 226, 486, -156, 228, 305, -956, 225, 377, 95, 280, 104, 643, 409, 413, 146, -54, 416, 73, 216, -221, 273, -54, 7, 78, 241, -39, 47, 244, 239, 421, -161, 19, 117, -251, 92, 1350, 528, -159, 475, -130, 216, 522, 361, -39, -141, 52, 471, 114, 100, -94, -159, 197, 408, 476, 93, 265, -855, 248, 27, 437, 151, -181, 440, 51, 42, -661, -521, 341, 442, -241, 115, 225, -53, 1424, 247, 400, 141, 339, 320, 767, 687, 193, -59, 419, 73, 96, -233, 514, 460, 240, 154, 126, -101, 68, 131, 486, -48, 566, -23, 5, 66, -91, 168, 148, -88, -521, -128, 68, 231, -55, 97, 615, 240, 189, 236, 351, 103, 114, 270, -198, -38, -230, -285, 269, 121, -142, 73, 86, 501, -13, 11, -194, -13, 8, -200, 110, 66, 147, -196, 430, -382, 468, 270, 517, -437, -519, 356, 399, 133, -24, 282, 226, 505, 203, 320, 119, 142, -149, -175, 272, 16, 196, -29, 237, 131, 35, -271, 204, -18, -134, 513, -2, 65, -733, 320, 7, 141, 254, 192, -57, 165, -179, 411, 93, 42, -134, 127, -163, -503, 5, 281, -550, -27, 104, 464, 164, 333, -100, -266, 58, 99, -164, 200, 15, 49, -4, -30, 437, -34, 40, 115, 120, 91, 116, -145, 69, 462, 1237, 176, 104, 377, 139, 289, 69, 171, 533, 127, 513, 94, -289, 60, -6, 178, 431, 25, 218, 106, 212, 47, 676, -170, 669, -500, 43, -236, 755, 16, 412, -301, -155, -80, 214, 97, -136, -167, -304, 125, 211, -76, -174, 216, 155, -82, -118, -122, 38, -65, 211, 208, -221, -116, 399, -11, 81, 44, 785, 6, -521, -31, 58, -108, -339, -83, -42, 461, -197, 680, 149, 247, 141, 52, 622, 617, 302, 327, 92, 61, -218, 333, 79, -105, -1544, 127, 160, -378, -154, 513, 180, 82, 112, -23, -202, -15, 205, 784, 187, 102, 1987, -12, -826, -112, 173, 32, -1, 80, 178, 183, -166, 119, 516, 149, 192, 41, 844, 745, 99, 139, 844, -463, 105, 53, 44, 34, 151, 17, 237, 57, 277, -121, 239, 127, 294, -107, -229, 123, 15, -213, -531, 566, 344, -1260, 353, -251, 100, 437, -113, -95, 179, 240, -3, 193, 210, -27, 117, 441, 121, 257, 449, 167, 579, 364, -317, 47, -234, 67, 50, 2, 56, -208, -62, -844, 128, 317, 20, 186, 143, 85, -580, 274, -63, -172, 42, 42, -14, -47, 263, -344, 448, 252, 603, 133, 195, 117, 178, 294, 236, -6, 72, -41, 87, -150, 56, -234, 393, 484, 456, -204, 108, 198, 63, -10, -136, 347, -205, 145, 112, 209, 332, 174, 111, 135, 420, -235, 318, -124, 80, 128, -58, 223, -148, 115, -223, 524, 12, -688, -215, -236, 71, -32, -23, 881, -41, 58, 305, 120, 262, 130, 18, 393, 37, -24, 227, -23, 54, 74, 50, 508, -34, 201, 137, 833, -62, 399, -278, 217, 277, 12, -229, -152, -134, 469, 134, -173, 288, 384, 351, 124, -121, -272, -42, 305, 966, -143, -63, -12, -143, 129, 51, 455, 1085, -142, -24, 186, 61, 3012, 333, 502, 275, 374, 284, -75, 133, 139, -47, 278, 38, 26, 264, 186, 21, 278, 746, 642, 85, 315, 69, -95, 143, -80, -111, -124, 453, -340, 387, -187, 603, 414, 484, -140, -50, -3, 432, 419, 4, -29, 291, 161, 153, 26, -83, -6, 127, 358, 288, 34, 485, 165, 307, -4, -39, -268, -37, 35, 32, -113, 59, 229, 262, 15, 500, 493, 456, 812, 146, 254, 202, 563, -101, 198, -46, -121, -89, 178, 68, -76, -15, 170, 268, -158, 185, 175, 39, 35, 1774, 370, 435, 717, -227, 65, -50, -37, 1014, 544, 407, 434, -414, 204, 14, 269, 239, 73, 135, 520, 127, -27, 529, 226, -228, 257, -1506, 833, -75, 18, 122, -97, 357, 63, 695, 223, 25, 32, -37, 924, 266, 310, 276, 124, 734, 46, 211, 155, 32, -78, 159, 263, 304, -111, -236, 387, 137, 425, 198, 698, 912, -20, 448, 88, -24, -139, 5, -7, 264, 180, 390, 47, 184, 1045, 372, -45, 153, -390, 132, -203, -181, 101, 299, 380, -228, 189, 377, 318, 1328, 39, 470, 505, 112, 126, -157, -232, 325, 73, 668, 158, 87, 96, -29, 36, 428, 144, -33, -97, 100, 499, 247, 78, -169, 66, 58, 86, 49, 408, -577, 18, 270, 7, 472, 264, 765, 254, -103, 110, 507, -44, -19, 55, 508, 69, 298, -190, 257, 502, 138, -68, 132, 432, 88, 454, 82, 87, 53, 144, 402, -19, 53, 116, 430, -115, 873, -140, 141, -18, 98, 94, 291, 209, -166, 82, 457, 378, 163, 4, 55, 35, 164, 572, 628, 80, 284, 116, 534, 121, 111, 138, 311, -92, 141, -276, 73, 108, 111, 118, 126, 171, 156, 173, 126, 435, 99, 533, 116, -235, 303, 337, 395, 8, 130, 178, -658, 148, 188, 492, -34, -6, 167, 77, 240, 224, -76, -59, 30, 40, -259, -567, -161, 239, 819, 712, -902, 64, 303, 196, 369, 68, 392, -43, -366, 143, 13, 163, 113, -3, -178, 30, 219, 29, 205, 468, 386, -710, 12, 128, 347, -68, 593, 166, -72, -209, 49, 447, 395, 17, -103, 267, -160, -359, 166, 170, 90, 69, 86, 87, 837, -104, 62, 67, 2, 176, 18, -144, -599, 28, 514, -83, -43, 12, 247, -142, -108, 211, 7, 273, -11, 286, 229, -192, 117, -12, -588, 510, 331, 292, 127, 513, -425, 56, 22, 976, 629, -96, 463, 227, 646, -578, -1334, -23, 105, -13, 703, -365, 140, -539, 122, -198, 616, 33, 447, 1125, 341, -1, 95, 249, 16, 258, 118, 138, -118, -205, -162, 98, 105, 113, 190, 85, 444, 856, 76, 198, 191, 198, 82, 75, 63, 202, -97, 695, 155, 116, -61, 202, 921, 160, 52, 201, 845, 16, -380, 83, 265, 196, -54, -414, 56, 397, -22, 676, -81, 124, 529, 15, 2, -3, -159, 142, 255, 81, -459, -289, 191, 202, 73, 217, 253, 39, 229, 1191, 928, -53, 238, -250, 54, 153, 102, 1205, 383, 65, -109, 225, 114, 220, 17, 276, 275, 200, 82, 2, 240, 546, 352, 198, 88, 168, 124, 319, 170, -245, -65, 558, 170, 323, 217, 318, 38, 125, 31, 547, -282, -72, 45, -37, 219, -97, 123, 155, 288, -444, 443, 443, 98, 440, 30, 107, 265, 190, -15, 363, 66, 206, 118, 223, 173, 23, -111, 226, 655, 186, 35, -104, 684, 48, 367, 219, -260, 179, 218, 190, -32, -281, 878, 538, -330, 326, 59, -15, -243, 107, 148, 34, 140, 396, 373, 814, 230, 72, 373, -36, 174, -46, 638, 218, 312, -296, -551, 49, 299, 68, 151, 159, 39, 63, 34, 74, 89, -81, 10, 179, 141, -595, -495, 3, 220, 130, 75, 225, -76, -182, 287, 57, -291, 51, -110, -487, -141, 771, 158, 871, -485, 1197, 627, 131, 61, -302, 195, 59, -277, -126, 773, 46, -223, 91, -26, 88, 64, -245, 70, 122, -241, -13, 91, 59, -65, 51, 293, 356, -1088, -112, -13, 200, -58, -650, 379, -119, 260, 174, 82, 9, 96, 150, -47, -828, -163, 73, -481, 185, 66, 511, 53, -25, 188, 233, -67, -3, -272, 87, 167, -574, 150, 62, 91, -365, -105, -73, 135, 555, 203, 39, 851, -45, -338, -117, 68, 67, -6, 100, 257, -252, 63, -105, -113, -305, 259, 280, -9, -304, 56, -272, 35, 206, 357, -70, -831, 557, 137, 144, 654, -67, 585, -267, 890, -33, -93, 272, -232, 262, 323, -23, 142, -39, 141, 89, 242, -90, 405, -244, 50, -38, 488, -175, -156, 143, -486, -125, 220, -562, 33, -104, -77, 143, 224, 30, -168, 291, 72, 62, -177, -361, -52, 245, -202, 197, -31, -264, 234, -119, 45, 18, 949, 110, -65, 151, 133, -287, -79, -285, -119, 292, -214, 1256, 81, -94, 65, -53, 476, 1270, 744, 710, -154, 274, -40, 70, 84, 494, -24, -51, 169, 843, -88, 342, 374, 125, 509, 777, -91, 445, 79, 222, 376, 340, -203, -110, 294, -222, 108, 194, 190, 138, -26, 149, 212, 198, 114, 46, 121, 11, -34, -283, 436, -144, 590, -2065, 14, -77, 388, 212, 129, 335, -10, 117, 359, 189, 452, -3, 550, 36, -100, 412, 16, -365, -435, -18, -150, 1425, -10, 874, 1164, 788, -198, -410, 261, 112, 167, 1090, 334, 134, 635, 61, 267, -212, 472, 429, -1459, 63, 1048, 334, 1298, 407, -53, -11, 308, -5, 116, 147, 484, 251, 166, 345, 230, -22, 65, 923, 276, 31, 42, 96, -188, 90, 81, 497, 77, 24, 86, -242, -46, 520, 569, -164, 92, -311, 30, 203, 103, 122, 397, 819, -323, 322, 593, -316, 371, 14, 513, -76, -309, 438, -271, 295, 32, 80, 39, 141, 96, -193, 119, -143, 618, -239, -229, 90, 260, -244, -690, 40, -376, 6, 187, 700, -8, -244, -37, 73, -65, -69, 142, 540, 49, 274, -223, -35, 401, 426, 368, 208, 64, -569, 474, -298, 38, 84, 632, 513, -691, -47, 288, -202, -313, 55, 199, 177, -258, 387, 135, 194, 95, -157, 527, 137, 604, 790, -63, 409, -85, 15, -52, 120, 520, 290, 191, -4, 1009, 22, -3, -215, -193, -22, 1750, -22, -53, 56, 83, 157, 554, 89, 116, 1614, 680, 242, 263, 43, 94, 277, -95, 683, 200, -84, -5, 10, 770, 76, -210, 26, 19, -9, -35, 139, 48, 232, -79, 84, -18, 235, -475, 1015, 67, 68, -45, 162, 1066, 248, 12, 326, 132, 81, -260, 180, 704, 322, 71, -115, 72, 2054, 68, 66, 85, -105, -151, 39, -191, -312, 61, 170, 335, 71, -37, 82, 0, -149, -63, 50, 167, -111, 226, 408, -26, 12, -167, 418, 232, 350, 184, 144, 643, -544, -1040, -355, 58, 167, 529, 162, -225, 192, -32, -108, 126, -376, 110, 502, 61, -229, 14, -414, -101, 313, 337, 181, 387, 431, -294, 365, 693, -324, 847, -184, 721, 1, -313, 437, -399, 298, 352, -154, -47, 56, 100, -407, 108, 10, 413, -127, -385, -187, 347, -250, 124, 451, -289, -217, 130, 328, 251, -330, -99, 65, 938, 17, 17, 429, 59, 557, 16, -123, 452, 194, 337, 157, -423, -1120, 427, -519, -342, -63, 1158, 141, -146, -42, 27, -149, -567, -314, -85, 421, -352, 431, 79, 402, 136, -116, 416, 157, 867, 493, -34, 306, -270, 2, 277, 158, -7, 118, -94, -787, 191, -16, 74, -636, -68, -260, -152, -67, 256, 454, 166, -1086, 1851, 277, 37, 115, 39, 146, 183, 13, 162, 2412, -729, 409, 264, 212, -39, 110, -63, 155, -191, -25, 181, -40, -598, 23, 248, -103, 168, -554, 281, 276, -105, 142, 78, 157, -71, 9, 204, 329, 152, -675, -61, 230, -214, -6, 279, -354, 187, -88, -100, 248, -84, 103, 115, -163, -94, 36, -54, 326, -14, 315, 570, -68, 510, 328, 145, 218, -189, 119, 248, 117, -17, 93, -14, 433, 197, -73, -222, 144, 349, 146, 371, -152, -252, -2124, 372, 126, 321, 320, 72, 258, 352, -30, 725, 109, -86, 123, -169, -134, -79, 134, 154, 95, 491, 255, 69, 344, -7, -14, 306, -83, 366, 76, 261, -15, -252, 57, 163, 577, 793, 177, 538, 264, 338, -156, 38, 31, 903, 196, -128, -135, 419, -146, 195, -192, -471, 73, 217, 80, -8887, -137, 149, 341, 48, 242, 406, 262, 184, 1237, 328, 217, -168, 322, 675, 657, 124, 215, 422, -71, 295, 358, 63, 144, -229, -111, -87, 128, 6, 181, -1087, -140, 243, 60, 87, 318, -116, 176, 1180, 477, 249, 335, 400, -67, 26, -2, -49, 130, 108, -165, 98, -74, 129, 67, 23, 170, -522, 368, 261, 48, -76, 41, 199, -175, 364, 343, 138, 101, 126, -263, 178, 761, -252, 1728, -203, 725, 136, -93, 353, -199, -326, 190, -103, -190, 97, 125, -271, 259, -120, 246, 23, -531, 58, 243, -87, 74, 28, -77, -55, -68, -1087, 381, -533, -231, 115, 303, -274, 44, 201, 135, 76, 113, -82, 247, 210, 225, 140, -496, 35, 199, -523, -31, -71, 251, 2, -44, -372, 82, 130, -32, -96, -19, 213, -179, 79, -44, 231, 141, -48, 159, 230, 59, 253, -42, 260, -603, 45, 157, -59, 181, 146, -133, 343, 312, -220, 293, 307, 238, 41, 249, 794, -236, 290, 521, -2206, 283, -54, -89, -32, 48, 220, 252, 724, 618, 81, -369, -15, 11, 162, 580, 267, 192, -23, 2629, 7, 1320, 296, 123, -117, 943, -904, 485, 522, 390, 5245, 450, -11, 247, 676, -450, 344, 227, 50, 42, -14, -28, -68, 551, -13, 92, 351, -66, 85, -42, -50, 236, -119, 433, 47, 169, -3384, -2034, -3363, 0, 504, 786, -331, 813, 43, 356, 395, 8, 697, 618, 19, 137, 65, -20, 1, 393, -82, 200, -376, 193, -184, 144, 40, -344, -91, -53, 338, -33, 919, 126, 726, 795, -4504, 410, 88, 788, -94, 235, 273, -58, 408, 395, 25, 429, 205, -33, -63, 133, 330, 328, 37, -646, -140, 548, 53, 172, -33, -831, 10, 346, -1233, -291, 110, 405, -61, 366, 280, -16, 8, 51, -59, 244, -181, 198, 29, -38, 282, -8, 141, 152, -54, 204, 154, 139, -132, 76, 240, -16, -296, 416, -33, 139, 48, 346, 285, 275, 141, 16, 487, 125, 173, 380, -156, 252, -119, -11, 367, 367, -109, 211, 239, 221, -30, -6, -34, -92, 213, 261, -17, 428, 31, 141, 247, 568, -1, 5, 167, 301, 161, 81, 177, 103, 38, 371, 93, 209, 316, 169, 314, 299, 186, 275, -33, 277, 172, 190, 304, 133, 679, 102, -283, -256, 225, 156, -61, 195, -742, 362, -13, 616, 209, 391, 203, 47, -158, 381, -56, -13, 246, 434, 148, -302, 162, 10, 210, 47, -3, 